0.000202637 7.56836e-05 9.27734e-05 0.00013916 3.17383e-05 0.000168457 0.000107422 1.2207e-05 8.54492e-05 0.000209961 0.000126953 1.70898e-05 0.00020752 2.19727e-05 0.000224609 4.63867e-05 0.000158691 6.10352e-05 2.44141e-06 7.8125e-05 0.000109863 0.000117187 0.000126953 0.000200195 9.0332e-05 0.000151367 0.000236816 0.000107422 0.00017334 9.27734e-05 0.000234375 0.000114746 0.000175781 5.61523e-05 0.000134277 0.000146484 5.12695e-05 0.000166016 0.000180664 6.5918e-05 4.15039e-05 7.32422e-06 0.000197754 1.95313e-05 0.000227051 0.000192871 0.000241699 8.54492e-05 0.000148926 0.000205078 7.32422e-06 0.00012207 0.000168457 3.17383e-05 7.8125e-05 0.000100098 8.78906e-05 0.000224609 0.000224609 0.000109863 9.76563e-06 0.000175781 0.000141602 1.46484e-05 0.000229492 0.00010498 0.000195313 1.95313e-05 0.000134277 0.000236816 0.000151367 0.000202637 0.00015625 0.000185547 1.2207e-05 5.12695e-05 7.08008e-05 0.000141602 0.000151367 0.000141602 2.92969e-05 0.000185547 0.000131836 0.000131836 1.95313e-05 0.000185547 0.000112305 9.76563e-05 9.76563e-06 7.08008e-05 8.54492e-05 7.32422e-06 4.39453e-05 0.000217285 0.000146484 0.000119629 0.000212402 0.000117187 0.000192871 0.000158691 4.15039e-05 5.85937e-05 9.76563e-06 2.19727e-05 0.000163574 0.000205078 7.32422e-06 1.2207e-05 0.000114746 0.000117187 5.12695e-05 0.000153809 6.10352e-05 0.000168457 4.88281e-06 0.000134277 0.000222168 3.17383e-05 0.000161133 0.000197754 4.88281e-05 5.37109e-05 8.78906e-05 8.78906e-05 0.000112305 4.63867e-05 0.000161133 9.0332e-05 0.000231934 5.61523e-05 4.39453e-05 4.88281e-05 0.000151367 0.000148926 0.000126953 0.00019043 7.32422e-05 0.00010498 0.000217285 2.19727e-05 0.000141602 1.70898e-05 0.000241699 0.000234375 0.000129395 0.000241699 0.000163574 0.000209961 2.19727e-05 0.000185547 4.63867e-05 0.000185547 2.92969e-05 4.15039e-05 2.92969e-05 0.000214844 0.000192871 0.000187988 7.56836e-05 9.0332e-05 0.000185547 0.000209961 8.30078e-05 0.00020752 3.66211e-05 8.78906e-05 2.19727e-05 1.46484e-05 0.000168457 0.000158691 3.17383e-05 9.76563e-06 7.32422e-06 9.27734e-05 0.000112305 0.000100098 0.000222168 8.30078e-05 0.000175781 0.000170898 2.44141e-05 0.000168457 0.000212402 0.000102539 0.000119629 0.000234375 0.000124512 6.83594e-05 9.0332e-05 5.61523e-05 0.000146484 5.37109e-05 0 0.000212402 4.88281e-06 0.000153809 5.61523e-05 0.000236816 0.000158691 2.92969e-05 2.19727e-05 7.32422e-05 0.000236816 0.000134277 0.000119629 6.83594e-05 5.85937e-05 0.00015625 3.66211e-05 1.46484e-05 0.000180664 0.000224609 2.44141e-05 0.000195313 0.000166016 1.46484e-05 0.000112305 9.27734e-05 9.76563e-06 0.000195313 0.000175781 0 0.000109863 1.70898e-05 3.66211e-05 1.95313e-05 7.8125e-05 3.66211e-05 0.000229492 8.78906e-05 0.000151367 0.000227051 0.000217285 0.00012207 7.56836e-05 0.000197754 0.000146484 2.68555e-05 0.000131836 0.000151367 0.000109863 3.66211e-05 9.0332e-05 0.000136719 0.00012207 0.000187988 0.000202637 8.05664e-05 7.56836e-05 0.00012207 2.44141e-06 6.5918e-05 6.10352e-05 9.27734e-05 0.000239258 0.000119629 0.000192871 0.000241699 0.000170898 5.85937e-05 9.76563e-06 7.08008e-05 0.000158691 0.000126953 0.000141602 0.000170898 9.52148e-05 0.000231934 0.000148926 0.000180664 1.95313e-05 0.000200195 0.000112305 0.000227051 6.10352e-05 0.00013916 0.000236816 0.000185547 9.76563e-06 0.000153809 2.19727e-05 0.000112305 0 2.44141e-05 0.00017334 0.000107422 4.63867e-05 0.000185547 0.000151367 9.52148e-05 0.000170898 0.000163574 0.00012207 8.78906e-05 5.37109e-05 0.000161133 0.000102539 0.00015625 5.61523e-05 0.000236816 0.00017334 0.000197754 0.000187988 2.44141e-06 0.000227051 0.000168457 0.000180664 0.000126953 0.000124512 0.000109863 5.61523e-05 0.00010498 0.000153809 2.44141e-06 4.88281e-06 5.85937e-05 0.00010498 0.000102539 0.000222168 0.000222168 0.000114746 0.000185547 0.000112305 0.000185547 0.000231934 0.000158691 2.44141e-06 0.000212402 3.66211e-05 0.000178223 0.000112305 0.000200195 0.000170898 3.90625e-05 1.46484e-05 0.000200195 0.000180664 9.0332e-05 0.000212402 3.90625e-05 0.000168457 8.05664e-05 0.000214844 0.000151367 0.000129395 0.000134277 9.52148e-05 6.34766e-05 0 0.000175781 0.000214844 0.00017334 6.5918e-05 0.000209961 0.000219727 1.46484e-05 6.5918e-05 9.0332e-05 0.000227051 9.27734e-05 0.000148926 0.000102539 0.00010498 7.56836e-05 4.88281e-06 0.000183105 6.83594e-05 0.000212402 5.37109e-05 6.34766e-05 0.000178223 4.39453e-05 1.46484e-05 8.30078e-05 0.000151367 0.000114746 4.63867e-05 0.000117187 0.000124512 0.000146484 8.30078e-05 0.000141602 7.8125e-05 8.54492e-05 0.000178223 0.000197754 0.00015625 1.2207e-05 7.56836e-05 0.000141602 9.76563e-05 4.88281e-05 1.46484e-05 0.000178223 0.000134277 0.000124512 9.76563e-06 0.000183105 6.10352e-05 0.000126953 0.000117187 0.000158691 1.95313e-05 4.15039e-05 0.00010498 0.000161133 7.32422e-05 8.54492e-05 3.41797e-05 4.88281e-05 0.000187988 0.000227051 7.08008e-05 1.2207e-05 8.78906e-05 1.95313e-05 2.44141e-06 1.2207e-05 6.5918e-05 2.44141e-05 0.000131836 4.39453e-05 0.000166016 8.78906e-05 5.85937e-05 9.76563e-05 6.34766e-05 1.70898e-05 9.52148e-05 0.000180664 0.000168457 0.000141602 9.76563e-06 0.000109863 0.000185547 0.000151367 0.000131836 0.000134277 0 4.88281e-06 0.000236816 0.00010498 0.000151367 5.12695e-05 0.000239258 0.000153809 0.000231934 0.000217285 9.52148e-05 0.000239258 0.000112305 0.000119629 0.000166016 0.000202637 0.000151367 4.88281e-06 7.32422e-06 0.000109863 7.8125e-05 0.000131836 7.32422e-06 0.00020752 4.39453e-05 6.10352e-05 6.5918e-05 0.000217285 0.00013916 0.000148926 0.000197754 0.000114746 6.83594e-05 0.000241699 0.000109863 0.000129395 0.000209961 6.10352e-05 0.000117187 9.0332e-05 0.000153809 0.000202637 0.000146484 8.78906e-05 5.37109e-05 0.000100098 0.000102539 0.000183105 0.000129395 0.000175781 8.05664e-05 0.000151367 0.000136719 1.2207e-05 4.15039e-05 9.76563e-06 0.000202637 2.92969e-05 6.83594e-05 0.000222168 0.000180664 0.000187988 0.000136719 0 6.34766e-05 0.00012207 0.000100098 0.000209961 2.44141e-06 0.000119629 3.66211e-05 2.92969e-05 0.000102539 1.2207e-05 0.000114746 0.000222168 0.000153809 0.000153809 0.000183105 6.83594e-05 0.000163574 0.000175781 6.83594e-05 0.000219727 0.000202637 6.5918e-05 0.00015625 9.76563e-06 0.000222168 0.000126953 0.000231934 9.27734e-05 4.15039e-05 0.000239258 9.0332e-05 0.000224609 0.00013916 5.12695e-05 0.000197754 2.44141e-05 0.000144043 0.000136719 0.00015625 0.000131836 5.12695e-05 0.000185547 0.000236816 7.32422e-06 9.76563e-05 3.66211e-05 0.000134277 0.000224609 1.46484e-05 1.46484e-05 8.54492e-05 0.00015625 9.27734e-05 4.15039e-05 0.000214844 0.000192871 0.000153809 0.000214844 0.000236816 4.15039e-05 0.000107422 0.000168457 0.000200195 0.000112305 0.000183105 0.000197754 0.000100098 0.000151367 3.90625e-05 8.54492e-05 0.00012207 0.000197754 2.92969e-05 0.000224609 0.000195313 0.000187988 0.000163574 0.000126953 0.00017334 0.000161133 7.32422e-06 0.000202637 5.61523e-05 4.39453e-05 1.70898e-05 5.61523e-05 0.000151367 0.000163574 0.000163574 2.44141e-06 0.000109863 0.000209961 0.000126953 0.000151367 0.000180664 0.000168457 3.41797e-05 2.92969e-05 0.000102539 9.76563e-06 7.56836e-05 0.000239258 7.08008e-05 5.61523e-05 0.000192871 4.88281e-05 4.63867e-05 0.000114746 6.34766e-05 0.000219727 0.000170898 0.000239258 4.88281e-06 4.63867e-05 0.000153809 0.000124512 0.000209961 0.000214844 0.000129395 6.34766e-05 0.000141602 3.41797e-05 7.56836e-05 0.000234375 1.95313e-05 2.44141e-06 6.34766e-05 4.63867e-05 0.000163574 4.88281e-06 0.000114746 9.0332e-05 0.000168457 0.000205078 0.00012207 0.000151367 4.88281e-06 0.000168457 1.70898e-05 4.39453e-05 0.000161133 4.88281e-06 6.83594e-05 0.000126953 0.00017334 9.0332e-05 2.68555e-05 0.000231934 2.19727e-05 0.000187988 0.000217285 0.000151367 0.000200195 5.85937e-05 0.000222168 7.56836e-05 3.41797e-05 0.000166016 0.000187988 0.000163574 0.000100098 2.68555e-05 0.00015625 0.000141602 0.000151367 4.15039e-05 4.88281e-05 0.000224609 0.000126953 0.000141602 0.000209961 0.000222168 0.000183105 3.90625e-05 0.000119629 1.70898e-05 7.32422e-05 9.0332e-05 0.000153809 0.00019043 0.000180664 3.17383e-05 0.000153809 0.000229492 8.05664e-05 0.000163574 9.27734e-05 0.00010498 0.000185547 2.44141e-05 0.000231934 0.000158691 9.27734e-05 9.27734e-05 0.000200195 0.000236816 0.00019043 4.39453e-05 2.68555e-05 0.000231934 0.00012207 0.000107422 0.000183105 8.05664e-05 0.000187988 0.000124512 0.000161133 6.34766e-05 4.39453e-05 0.000217285 0.00015625 0.00015625 4.63867e-05 0.000100098 0.000219727 6.34766e-05 0.000146484 5.37109e-05 0.000153809 3.90625e-05 7.32422e-06 0.000129395 0.000107422 4.15039e-05 8.78906e-05 0.000231934 7.8125e-05 3.90625e-05 0.000217285 6.5918e-05 0.000136719 7.32422e-05 1.95313e-05 0.000219727 1.46484e-05 0.00010498 0.000166016 4.88281e-05 9.27734e-05 0.000209961 0.000234375 1.46484e-05 2.44141e-06 0.00012207 4.39453e-05 2.44141e-06 0.000209961 2.44141e-05 0.000241699 1.46484e-05 0.00017334 0.000239258 9.52148e-05 0.000217285 0.000197754 0.000183105 9.76563e-05 0.000153809 0.000141602 0.000102539 0.000170898 0.000192871 3.41797e-05 0.000178223 0.000209961 9.0332e-05 4.63867e-05 4.63867e-05 1.70898e-05 0.000131836 5.37109e-05 0.000107422 0.000185547 0.000183105 0.000183105 6.34766e-05 0.000192871 0.000126953 5.85937e-05 0.000109863 9.27734e-05 0.00019043 0.000100098 0.000170898 0.000166016 7.8125e-05 6.10352e-05 9.76563e-05 0.000180664 0.000161133 0.000119629 8.30078e-05 4.88281e-06 6.5918e-05 2.19727e-05 3.90625e-05 0 0.000236816 0.00017334 0.000224609 7.56836e-05 3.41797e-05 0.000158691 2.92969e-05 6.34766e-05 5.37109e-05 0.000148926 0.000129395 0.000126953 0.000112305 0.000180664 4.15039e-05 5.12695e-05 1.70898e-05 8.05664e-05 0.00019043 0.000180664 0.000202637 0.00013916 0.000229492 0.000112305 8.54492e-05 9.76563e-06 0.000131836 0.000236816 5.37109e-05 0.00013916 8.54492e-05 4.15039e-05 5.12695e-05 6.34766e-05 0.000141602 1.95313e-05 3.90625e-05 3.66211e-05 0.00019043 7.32422e-05 3.66211e-05 3.66211e-05 5.61523e-05 0.000124512 0.000224609 0.000163574 0.00013916 9.52148e-05 0.000234375 4.63867e-05 7.32422e-06 0.000107422 1.2207e-05 0.000124512 4.88281e-06 0.000126953 9.52148e-05 0.000163574 6.10352e-05 1.70898e-05 0.000158691 0.00017334 0.000209961 6.5918e-05 1.46484e-05 0.000141602 2.92969e-05 0.000112305 7.56836e-05 0.000185547 4.63867e-05 6.5918e-05 0.000231934 9.0332e-05 0.000148926 0.000239258 6.34766e-05 0.000234375 0.000200195 0.000187988 0.000151367 0.000117187 0.000131836 7.32422e-06 0.000114746 0.000197754 0.000197754 1.70898e-05 0.000227051 0.000151367 7.32422e-06 0.000214844 0.000214844 5.37109e-05 0.000100098 9.76563e-06 4.63867e-05 6.10352e-05 0.000117187 0.000129395 0.000134277 0.000119629 0.00020752 0.00010498 0.000112305 1.95313e-05 5.12695e-05 0.000192871 8.54492e-05 0.000114746 4.39453e-05 8.54492e-05 6.10352e-05 0.000114746 2.19727e-05 0.000192871 0.000214844 0.000183105 0.00013916 0.000195313 3.41797e-05 0.000219727 2.92969e-05 0.000231934 1.46484e-05 0.000192871 0.000136719 0.000100098 2.44141e-06 0.000141602 0.000227051 1.95313e-05 3.17383e-05 0.000158691 0.00020752 0.000136719 0.000134277 3.66211e-05 0.000148926 0.000134277 0.000166016 8.54492e-05 0.000112305 8.05664e-05 0.000117187 0.000126953 0.00019043 8.78906e-05 0.000141602 6.5918e-05 2.68555e-05 0.000144043 7.08008e-05 0.000151367 9.76563e-05 0.000141602 7.56836e-05 8.78906e-05 0 5.12695e-05 0.000163574 4.88281e-06 9.52148e-05 0.000146484 3.17383e-05 2.92969e-05 9.76563e-06 7.56836e-05 0.000212402 6.34766e-05 0.000241699 5.12695e-05 0.000234375 9.76563e-06 0.000229492 0.000192871 0.000163574 0.000205078 0.000163574 0.000180664 0.000119629 6.5918e-05 0.000175781 4.88281e-05 9.76563e-05 7.32422e-06 9.52148e-05 9.52148e-05 0.000234375 0.000214844 0.000222168 2.44141e-05 2.44141e-05 0.000192871 0.00010498 0.000151367 0.000141602 2.68555e-05 0.000109863 4.88281e-05 0.000109863 0.000219727 0.00013916 0.00010498 0.000117187 6.5918e-05 1.70898e-05 0.000166016 0.000224609 4.88281e-06 4.39453e-05 0.00015625 0.000180664 0.000134277 3.66211e-05 0.000222168 0.000205078 0.000192871 7.32422e-05 0.00017334 0.000227051 0.000205078 0.000161133 0.000229492 0.000217285 0.000222168 0.000153809 8.54492e-05 0.000100098 0.000100098 5.61523e-05 6.34766e-05 0.000102539 0.000148926 0.000131836 0.000134277 2.92969e-05 8.54492e-05 0.00010498 0.000109863 0.000175781 0.000112305 9.27734e-05 2.92969e-05 1.2207e-05 0.00013916 0.000241699 0.000202637 0.000114746 0.000100098 7.56836e-05 6.34766e-05 0.000168457 1.46484e-05 0.000102539 0.00012207 3.17383e-05 0.000200195 0.000126953 9.27734e-05 0.000112305 0.000102539 0.000185547 0.000102539 0.000148926 0.00019043 0.000180664 7.32422e-05 0.000153809 5.85937e-05 0.00010498 0.00019043 4.88281e-06 7.8125e-05 7.56836e-05 0.000234375 9.0332e-05 0.00017334 8.30078e-05 2.44141e-06 0.000119629 2.44141e-05 0.000222168 0.000183105 0.000236816 0.000148926 4.15039e-05 8.30078e-05 0.000141602 0.00010498 0.000161133 0.000161133 0.000195313 0.000209961 0.000202637 0.000109863 0.000153809 0.000209961 7.8125e-05 0.000185547 0.000168457 3.66211e-05 0 0.000212402 2.68555e-05 0.000227051 8.05664e-05 0.000227051 5.61523e-05 0.000158691 0.000183105 0.000158691 5.12695e-05 0.000224609 0.000151367 0.000153809 0.000178223 0.00020752 0.000100098 7.32422e-05 0.00010498 0.000180664 6.34766e-05 0.000200195 9.52148e-05 9.27734e-05 2.92969e-05 0.000158691 0.000117187 2.68555e-05 0.000112305 9.0332e-05 0.000214844 0.000144043 0.00020752 2.92969e-05 1.46484e-05 0.000166016 0.000114746 0.000131836 9.27734e-05 8.05664e-05 0.000151367 0.000114746 0.00015625 0.000239258 0.000227051 7.32422e-06 0.000205078 0.000114746 0.000107422 8.30078e-05 0.000148926 5.61523e-05 0.00012207 0.000212402 0.000195313 0.000219727 9.27734e-05 4.39453e-05 5.61523e-05 5.85937e-05 0.000153809 0.000148926 2.44141e-06 8.78906e-05 0.00020752 0.000107422 8.05664e-05 0.000102539 2.68555e-05 8.05664e-05 0.000124512 8.05664e-05 0.000202637 0.00010498 6.10352e-05 0.000136719 0.000229492 2.19727e-05 9.27734e-05 2.44141e-06 0.000175781 8.05664e-05 0.000192871 3.66211e-05 0.000136719 5.12695e-05 3.66211e-05 6.83594e-05 0.000153809 2.44141e-05 0.000168457 1.46484e-05 7.56836e-05 7.56836e-05 0.000124512 4.63867e-05 0.000102539 0.000158691 2.92969e-05 0.00019043 5.85937e-05 0.000205078 0.000129395 0.000117187 0.000180664 0.000234375 5.12695e-05 7.32422e-06 0.000202637 8.05664e-05 9.76563e-05 1.46484e-05 0.000214844 0.000166016 9.27734e-05 -0.000491451 0.000699586 0.000102674 -0.000836434 -0.00113285 -0.000781657 0.000652154 -0.000306636 0.000765584 0.000552639 -0.000677538 -0.000642124 0.000524402 -0.000359915 -0.00116141 0.000578788 -0.00119786 0.000208701 0.000453877 0.00209293 0.000477478 0.000675297 -0.0011766 0.000443012 0.00037789 0.00050797 -0.00162631 0.000616952 -0.000564652 0.000529072 -0.0011395 -0.000612668 -0.0009142 0.000639003 -0.000694603 0.000474765 0.000598113 -0.00136109 0.000687497 -0.000830442 0.00133347 0.000373817 0.00066896 -0.000141569 0.000396563 0.000555753 0.00038424 0.000967485 0.000653519 -0.000316031 -0.00133665 -0.000324728 0.000320621 -0.000728994 0.000520699 0.000866314 0.000463222 0.000642124 -0.00113612 0.000689177 0.00142119 -0.0018467 -0.000970165 0.000161765 -0.0158104 0.0141607 -0.000808325 -0.0262123 -0.0327144 -0.025297 0.0126236 -0.0140747 0.0214619 0.0121741 -0.0247963 -0.0236283 0.0127218 -0.0156901 -0.034735 0.0119693 -0.0391035 0.00244512 0.0136977 0.0548869 0.0123271 0.0136158 -0.0380491 0.0100207 0.00736312 0.0126097 -0.05275 0.0152573 -0.022228 0.0109306 -0.0409049 -0.0242383 -0.0303953 0.0131379 -0.0205901 0.0139895 0.013847 -0.0423734 0.0142698 -0.0247142 0.0357646 0.0110859 0.0131104 -0.00616646 0.0116852 0.0135214 0.0102882 0.0231486 0.0135744 -0.0164061 -0.0425199 -0.0150961 0.0090349 -0.0264509 0.0127666 0.0191077 0.00885375 0.0120453 -0.036 0.020088 0.0360017 -0.059935 -0.033281 0.00431541 -0.0268206 0.0239188 -0.00146288 -0.0608998 0.0356466 -0.0473032 0.0221682 0.000852016 -0.00118735 0.0214142 -0.0300357 -0.044133 0.02192 -0.0272442 -0.0588843 0.021424 -0.0456267 0.00955603 0.0234487 0.0296739 0.0216245 0.0232015 -0.0656964 0.0178694 0.0256602 0.0224566 -0.0457256 0.0249642 -0.0645846 0.020265 -0.0602823 -0.0507099 -0.0635879 0.0225802 -0.0398141 0.023778 0.0239034 -0.0230876 0.024202 -0.0477207 0.0595586 0.0200398 0.0224987 -0.0128293 0.021001 0.0230942 0.0181288 0.0461547 0.0223644 -0.0281637 -0.0513418 -0.0270634 0.0172907 -0.0696114 0.0185575 0.0305122 0.0172741 0.00878492 -0.0638135 0.0577356 0.0340612 -0.0570117 -0.0597821 0.0437511 -0.0380093 0.0363056 0.000852951 -0.136185 0.137911 -0.0696504 0.0342676 0.0361244 0.00699797 0.0334481 -0.02916 -0.0703629 0.0338338 -0.0388363 -0.010414 0.0335282 -0.0823844 0.0167673 0.0357875 -0.057006 0.033597 0.0355521 -0.0595125 0.0291566 0.011803 0.0341254 -0.0588057 0.0377325 -0.0706781 0.0324616 -0.0971487 -0.0501706 -0.0539857 0.0349534 -0.0307764 0.0360396 0.0361966 -0.022793 0.0367059 -0.0884165 0.0925308 0.0321765 0.0346729 -0.0223576 0.0325117 0.0355141 0.0292882 0.021071 0.0347263 -0.0397528 -0.0280786 -0.0384295 0.0290637 -0.0520494 0.00456914 0.0430968 0.0287351 0.00463932 -0.0643069 0.0552463 -0.00689679 -0.0723786 -0.0557983 0.0316288 -0.0429737 0.0426835 0.00144448 -0.165759 0.174402 -0.0790696 0.0411326 0.0516212 0.0196611 0.0401768 -0.0282049 -0.0813188 0.040611 -0.0437201 0.0392515 0.0401007 -0.116657 0.0208576 0.042609 -0.106426 0.0405115 0.0420354 -0.0421859 0.0358768 -0.00262832 0.0408117 -0.0548226 0.0444732 -0.0629395 0.0390861 -0.105582 -0.0391977 -0.0364889 0.0418203 -0.0314515 0.0425164 0.0430438 -0.0244122 0.0430734 -0.104733 0.0955575 0.0387012 0.0412286 -0.0263556 0.0390074 0.0424128 0.0358105 -0.0117748 0.0416463 -0.0451186 0.00665208 -0.043414 0.0359442 -0.0229531 -0.00374537 0.0488813 0.0355265 0.00720984 -0.051347 0.0400019 -0.0512583 -0.0698256 -0.0426239 0.0121125 -0.0547384 0.0564763 -0.00357529 -0.181447 0.190151 -0.096309 0.0553153 0.0605174 0.0496244 0.0541745 -0.0354337 -0.09674 0.0553032 -0.0558197 0.0897873 0.054181 -0.130358 0.0112614 0.0569147 -0.119034 0.0552716 0.0561557 -0.0105706 0.0502702 -0.0180224 0.0548487 0.0047586 0.0578249 -0.0455176 0.0535267 -0.0845789 -0.0237174 -0.0158513 0.0559366 -0.0845405 0.0563769 0.0573575 -0.017151 0.056832 -0.119892 0.0871023 0.0518912 0.0555208 -0.0294886 0.0528473 0.0566262 0.050217 -0.0315566 0.0558485 -0.0568272 0.0530329 -0.0564971 0.0509222 -0.00422123 -0.0151364 0.0616884 0.0495546 0.0169681 0.00303156 0.00423408 -0.0691765 -0.0242441 -0.0372637 -0.0111064 -0.0605454 0.0636155 -0.00580762 -0.186815 0.191993 -0.106521 0.0630703 0.0624246 0.0501887 0.0619451 -0.0344775 -0.105388 0.0631138 -0.0620043 0.119511 0.0619211 -0.162318 0.0156229 0.0647194 -0.151233 0.0633703 0.0638856 0.00549171 0.0575727 -0.0320604 0.0626437 0.016368 0.0643707 -0.0367856 0.0613932 -0.0752045 -0.00670516 -0.00322247 0.0629259 -0.0869625 0.0640711 0.0649538 -0.0120833 0.0642298 -0.127188 0.0698767 0.0587628 0.0630475 -0.0294616 0.0603874 0.0644798 0.0572443 -0.0670619 0.0630744 -0.0633396 0.0878796 -0.0633559 0.0589392 0.0205366 -0.0215597 0.0673019 0.057306 0.0169123 0.00911305 -0.0135516 -0.105609 -0.0147564 -0.0252975 -0.0278107 -0.0528497 0.0554702 -0.00357198 -0.173478 0.190147 -0.0934279 0.0551941 0.0618846 0.0313183 0.054309 -0.0254494 -0.0936725 0.0551549 -0.0540941 0.112276 0.0542525 -0.144964 0.0187144 0.056583 -0.153713 0.0552465 0.0558749 0.000641689 0.0502213 -0.0271511 0.0548822 0.0106044 0.0563887 -0.0388046 0.0538934 -0.073143 -0.0102527 -0.00507714 0.0541607 -0.059354 0.0559418 0.0567777 -0.00411158 0.0560605 -0.115517 0.0638883 0.0518405 0.0549379 -0.0261467 0.0529157 0.056255 0.0498461 -0.0632424 0.0550625 -0.0553414 0.0844576 -0.0551888 0.0517748 0.0190794 -0.021567 0.0585836 0.0503861 0.00640912 -0.00416014 -0.00253355 -0.10423 -0.0147247 -0.0209722 -0.0181937 -0.0659184 0.06984 -0.0159081 -0.182958 0.168385 -0.106726 0.0697395 0.0896775 -0.0115768 0.0686966 -0.0240481 -0.0908123 0.06946 -0.0683593 0.116338 0.0686521 -0.121165 -0.00951297 0.0710548 -0.158884 0.069722 0.0704237 -0.0280694 0.0636583 -0.0323232 0.069578 0.0311654 0.0701505 -0.0210602 0.0690624 -0.0819775 -0.0503639 -0.0315372 0.0685626 -0.0241609 0.0704843 0.0711589 0.0220167 0.0704491 -0.127679 0.0731473 0.0666958 0.0697734 -0.0419115 0.0674158 0.0709833 0.0634284 -0.0494975 0.0681148 -0.0694474 0.0758818 -0.0698904 0.0668995 -0.00880707 -0.0440567 0.0704405 0.0648607 0.0288179 -0.0244977 0.0235198 -0.107701 -0.00530806 -0.0490307 0.00280486 -0.0809786 0.0836973 -0.0258552 -0.198454 0.150663 -0.123721 0.0831478 0.108864 -0.0439749 0.0817323 -0.0253373 -0.0933106 0.0828304 -0.0843206 0.0912122 0.0816712 -0.0787001 -0.037548 0.0849263 -0.144534 0.0826068 0.0842291 -0.061509 0.073148 -0.0309868 0.0831345 0.0410726 0.0842327 -0.01073 0.0839386 -0.0935314 -0.0889675 -0.0586687 0.0834221 -0.00237608 0.0843827 0.0849964 0.0421638 0.0842725 -0.143802 0.0926747 0.0770681 0.0835776 -0.0546531 0.0805556 0.0843976 0.072043 -0.0112631 0.0758667 -0.0848646 0.0346738 -0.0856218 0.0797832 -0.0549476 -0.0612771 0.0838555 0.0771832 0.0520892 -0.0466798 0.0498549 -0.073025 -0.00775562 -0.0845979 0.027783 -0.0708025 0.0613383 0.0143186 -0.198084 0.202749 -0.127375 0.0563764 0.0561525 -0.00464601 0.0558063 0.0158894 -0.0994431 0.055279 -0.0736229 0.116226 0.0524907 0.00682435 0.00450139 0.063904 -0.149681 0.0526773 0.0562216 -0.0193789 0.00978425 0.0155578 0.0555818 0.0813034 0.0654551 -0.0563667 0.0703215 -0.0461997 -0.0490579 0.00455953 0.069255 -0.049256 0.0576877 0.0610402 0.0809994 0.0603279 -0.139551 0.0500902 0.00609368 0.059935 -0.00885179 0.0547374 0.0558945 0.000223829 0.0557607 -0.000293384 -0.071774 0.000859748 -0.0691412 0.047375 -0.0941575 -0.0237728 0.0623386 0.0475193 0.0737101 -0.0573392 0.0621636 -0.0639072 0.0357412 -0.0560987 0.0705242 -0.0568527 0.0416139 0.0396249 -0.195456 0.235188 -0.134732 0.036181 0.0246148 0.015663 0.0361257 0.0416119 -0.102576 0.0347144 -0.0595776 0.12035 0.031203 0.0428084 0.0344563 0.0451733 -0.150044 0.0310181 0.0350727 0.00318824 -0.0257684 0.0430164 0.0342001 0.0876083 0.0452766 -0.0861867 0.0540693 -0.0229574 -0.0224165 0.0146834 0.0545113 -0.0675995 0.0373428 0.0415968 0.100071 0.0407469 -0.129754 0.0245153 -0.0298864 0.041899 0.0181772 0.034324 0.0342918 -0.0373423 0.0856705 -0.0319648 -0.0558354 -0.00106611 -0.0527357 0.027088 -0.110564 0.00370357 0.0350842 0.0272673 0.0860986 -0.0700966 0.0728 -0.0755241 0.04928 -0.0435923 0.0948783 -0.0332443 0.0246422 0.0221878 -0.152348 0.220478 -0.0753397 0.021178 0.0399725 -0.0079839 0.0211451 0.0233598 -0.0674279 0.0201145 -0.0347939 0.0414586 0.0189624 0.0314152 0.0250451 0.0260034 -0.132978 0.0181992 0.0208536 -0.014464 -0.00929691 0.025364 0.0204034 0.0206133 0.0271047 -0.0671719 0.0302649 -0.0449751 -0.02223 -0.000875008 0.0301517 -0.0163531 0.0221318 0.0241069 0.0596756 0.0241112 -0.0917405 0.0506629 -0.010477 0.0238816 0.00270872 0.0205851 0.0206792 -0.0153135 0.0580156 -0.0137461 -0.0330809 -0.0246858 -0.030983 0.0157827 -0.0750832 -0.00570982 0.0240741 0.0165844 0.0215906 -0.0534057 0.0548672 -0.0212745 0.0045931 -0.0298235 0.0625758 -0.016093 0.0147914 0.00326667 -0.110256 0.180104 -0.0340508 0.0142261 0.0530962 -0.0219963 0.0140569 0.00317713 -0.0386818 0.0135491 -0.0167431 -0.0123053 0.0140171 0.0116479 0.00645432 0.0144039 -0.0999467 0.0135746 0.0142108 -0.025633 0.0119119 0.00514383 0.013879 -0.0181569 0.0154727 -0.0391425 0.0145221 -0.0575237 -0.0249689 -0.0233542 0.0143944 0.0145669 0.014522 0.0145909 0.0245706 0.0149811 -0.0590592 0.0688147 0.0143873 0.0142045 -0.0128776 0.0137363 0.0145561 0.0118501 0.0271394 0.0133928 -0.0165426 -0.0252996 -0.0163312 0.0131282 -0.0401516 -0.0160812 0.0156203 0.0134051 -0.0186196 -0.0269222 0.0331611 0.0133636 -0.0223601 -0.0248622 0.0293262 -0.0102711 0.00973166 0.00213431 -0.0721675 0.118536 -0.0220416 0.00923237 0.0349822 -0.0143792 0.00912384 0.00211824 -0.0252614 0.00882585 -0.0106191 -0.008408 0.00908197 0.00767369 0.00433742 0.00934511 -0.0655833 0.00866712 0.00913411 -0.0167342 0.00789019 0.0033714 0.00893806 -0.0121144 0.0099596 -0.025466 0.00924844 -0.0378579 -0.0160998 -0.0152813 0.0093333 0.00968273 0.00939149 0.00938915 0.0159759 0.00956249 -0.0383851 0.0453799 0.00945085 0.00919916 -0.00842548 0.00886379 0.00927975 0.00771341 0.0177717 0.00871823 -0.0106498 -0.0167441 -0.0105268 0.00858974 -0.0262073 -0.0103561 0.0100522 0.00857535 -0.0125861 -0.017448 0.021568 0.00904613 -0.0147696 -0.0161477 0.0191078 -0.00295038 0.00273756 0.000709966 -0.0202603 0.0334327 -0.00626029 0.0027274 0.00983763 -0.00394572 0.00275659 0.000641581 -0.00709155 0.00264443 -0.00305086 -0.00238801 0.0026477 0.00218569 0.00138292 0.0026634 -0.0183152 0.00259974 0.00260372 -0.00463823 0.00241407 0.00100282 0.00254646 -0.00339765 0.00282321 -0.00711713 0.00263395 -0.0106535 -0.00438898 -0.00429705 0.00280495 0.00276113 0.00267296 0.00275236 0.00470692 0.00281793 -0.0107068 0.0129302 0.00271116 0.00272479 -0.00221028 0.00263488 0.00271751 0.00238019 0.00520322 0.00246959 -0.00288093 -0.00469268 -0.00292332 0.00257552 -0.00725819 -0.0028432 0.00292066 0.00259509 -0.00345883 -0.00489439 0.0061038 0.0026054 -0.00413493 -0.00453736 0.0054712 -0.00014827 0.00029789 8.09772e-05 -0.000875888 0.00189722 -8.46205e-05 0.000281759 0.000648838 -0.000114627 0.000241945 0.000146769 -0.00025617 0.000332564 -6.56234e-05 -7.83588e-05 0.000328392 0.000239399 8.68731e-05 0.000374552 -0.000926122 0.000219102 0.000242864 -0.000117554 0.000327979 5.98228e-05 0.000205517 6.30191e-05 0.000216556 -0.000315414 0.000139175 -0.000444624 -5.11113e-05 -5.89914e-05 0.000238282 0.000164067 0.000267867 0.000231808 0.000273914 0.000144071 -0.000412305 0.000733662 0.000200956 0.000282124 -2.69897e-05 0.000341766 0.000269966 0.00028562 0.000478421 0.000320529 4.01786e-05 -0.00012843 8.71887e-05 0.000254318 -0.000234012 -3.82943e-05 0.000269681 0.000149635 -0.000181471 -0.000189402 0.000385213 0.000332037 -0.000133738 -0.000198516 0.000295535 4.88281e-05 3.41797e-05 0.000100098 9.0332e-05 0.000163574 0.000109863 0.000180664 6.10352e-05 0.000183105 0.00019043 7.32422e-06 0.000178223 0.000224609 0.000124512 5.37109e-05 7.56836e-05 2.92969e-05 9.52148e-05 0.000119629 7.56836e-05 0.000102539 5.37109e-05 9.52148e-05 0.000112305 0.000146484 0.000136719 1.2207e-05 0.000119629 0.000197754 0.000231934 6.5918e-05 8.78906e-05 0.000153809 5.37109e-05 0.00015625 0.000126953 0.00013916 7.8125e-05 5.61523e-05 0.000183105 0.000205078 0.000107422 0.000163574 0.000112305 0.000209961 5.37109e-05 0.000153809 0.000202637 0.000231934 0.000209961 3.41797e-05 0.000219727 0.000234375 8.54492e-05 5.37109e-05 0.000200195 0.000180664 0.00010498 9.76563e-06 4.88281e-05 0.000119629 0.000197754 0.000163574 0.000153809 0.000107422 0.000202637 0.00015625 0.000166016 0.000102539 0.000129395 0.000209961 0.000136719 0.000168457 0.000158691 0.00020752 4.63867e-05 3.17383e-05 0.00020752 1.2207e-05 0.000175781 4.15039e-05 3.41797e-05 0.000183105 0.000131836 2.44141e-05 0.000112305 1.70898e-05 4.15039e-05 0.000107422 0.000168457 0.000214844 0.000229492 0.00012207 0.000153809 0.000175781 7.56836e-05 5.61523e-05 0.000178223 8.05664e-05 0.000180664 0.000102539 0.00015625 0.000209961 0.000231934 0.000112305 0.000200195 0.000151367 1.95313e-05 0.000209961 8.78906e-05 3.41797e-05 0.000227051 1.95313e-05 4.88281e-05 2.44141e-05 5.85937e-05 0.00017334 0.000214844 0.000227051 0.00019043 0.000192871 0.000180664 0.000234375 4.63867e-05 0.000175781 0.000236816 7.8125e-05 0.000144043 0.000178223 8.78906e-05 0.000231934 4.39453e-05 0.00019043 0.000180664 0.000158691 5.85937e-05 0.000107422 0.000168457 0.000170898 0.000214844 9.76563e-05 5.61523e-05 9.52148e-05 0.000209961 0.000112305 7.32422e-05 0.000227051 0.000146484 0.000144043 9.52148e-05 0.000158691 0.000170898 0.000229492 7.32422e-05 8.54492e-05 0.000234375 0.000163574 0.000134277 0.000224609 0.000175781 0.000100098 0.000205078 3.17383e-05 8.54492e-05 0.000227051 2.44141e-06 0.00020752 0.000119629 4.88281e-06 0.00015625 0.00020752 0.000214844 9.52148e-05 0.000102539 4.88281e-05 0.000234375 0.000134277 0.000170898 0.000100098 0.000185547 0.000212402 7.08008e-05 0.000153809 8.05664e-05 0.00020752 0.000100098 0.000117187 0.00020752 0.000117187 0.000141602 0.000124512 9.0332e-05 5.85937e-05 6.10352e-05 0.000214844 5.37109e-05 6.5918e-05 0.000202637 0.000144043 3.66211e-05 0.000175781 9.0332e-05 0.000212402 0.000153809 0.000192871 1.46484e-05 2.92969e-05 2.68555e-05 0.000158691 0.000239258 2.44141e-06 3.66211e-05 0.000141602 0.000166016 0.00010498 0.000209961 0.000146484 0.000114746 3.90625e-05 9.0332e-05 5.37109e-05 9.76563e-05 0.000222168 0.000222168 0.000227051 0.000241699 0.000126953 0.000151367 0.00020752 9.27734e-05 0.000219727 3.17383e-05 0.000124512 6.34766e-05 0.000136719 0.000229492 0.000119629 1.2207e-05 7.08008e-05 0.000131836 0.000219727 9.76563e-06 7.56836e-05 0.00017334 9.76563e-06 0.00012207 4.15039e-05 0.00020752 9.76563e-06 0.000195313 0.000222168 6.10352e-05 0.00013916 0.000209961 0.00012207 4.15039e-05 7.8125e-05 0.00019043 3.17383e-05 0.000166016 0.000151367 0.000166016 0.000166016 2.44141e-06 0.000187988 0.000161133 0.00010498 4.15039e-05 0.000234375 0.00020752 0.000236816 0.000151367 4.39453e-05 0.000192871 0.00020752 0.000168457 0.000131836 4.39453e-05 3.90625e-05 7.56836e-05 0.000195313 2.92969e-05 6.10352e-05 0.000195313 0.000131836 0.000158691 0.00020752 8.78906e-05 0.000168457 9.27734e-05 2.68555e-05 7.32422e-06 0.00012207 5.85937e-05 0.000153809 3.66211e-05 0.000178223 6.10352e-05 0.000178223 5.61523e-05 0.00015625 0.000166016 9.0332e-05 0.000180664 0.000124512 2.68555e-05 5.85937e-05 0.000126953 0.000231934 0.000231934 6.34766e-05 6.83594e-05 0.000234375 1.95313e-05 0.000100098 6.5918e-05 0 0.000222168 0.000175781 1.95313e-05 0.000109863 0.000117187 6.10352e-05 6.83594e-05 4.88281e-06 0.000168457 0.000175781 7.8125e-05 0 4.88281e-06 8.30078e-05 0.00015625 7.32422e-05 0.00015625 0.000119629 0.000183105 7.32422e-06 0.000124512 0.000107422 0.00013916 0.000192871 5.61523e-05 0.000119629 0.000134277 0.000178223 4.88281e-06 8.05664e-05 2.19727e-05 0.000124512 0.000239258 0.00010498 8.78906e-05 0.000192871 0.00019043 0.000168457 0.000134277 0.00015625 5.12695e-05 0.000183105 8.54492e-05 8.78906e-05 7.56836e-05 0.000219727 0.00012207 0.000217285 6.5918e-05 5.85937e-05 0.000205078 0.000148926 0.000217285 0.000187988 0.000183105 0.000124512 6.10352e-05 0.000102539 8.05664e-05 1.46484e-05 0.000224609 0.000153809 7.56836e-05 0.000214844 0.000234375 0.00019043 7.08008e-05 0.000241699 0.000239258 0.000148926 5.61523e-05 0.000202637 0.000183105 0.000175781 0.000200195 0.00015625 0.000183105 9.76563e-06 0.000102539 0.000100098 7.56836e-05 0.000175781 8.30078e-05 0.000239258 1.95313e-05 6.34766e-05 6.5918e-05 4.39453e-05 9.0332e-05 3.90625e-05 0.000219727 1.70898e-05 0.000185547 0.000234375 5.12695e-05 0.000131836 0.000212402 0.000117187 9.27734e-05 3.41797e-05 0.000180664 5.37109e-05 0.000146484 0.000224609 0.000192871 0.000124512 8.30078e-05 0.000129395 0.000161133 2.44141e-05 8.54492e-05 1.70898e-05 0.000153809 0.000212402 0.000227051 0.00013916 6.83594e-05 0.000158691 0.000205078 0.000117187 3.66211e-05 0.000168457 0.000148926 7.08008e-05 3.90625e-05 8.78906e-05 0.000151367 0.000129395 0.00019043 0.000180664 4.88281e-05 2.68555e-05 1.95313e-05 0.000185547 0.000136719 6.10352e-05 6.10352e-05 0.000202637 8.05664e-05 2.44141e-05 8.05664e-05 0.00019043 0.00017334 0.000180664 0.000219727 0.000131836 1.95313e-05 0.000161133 7.08008e-05 0.000166016 0.000114746 0.000168457 0.000231934 0.000202637 4.39453e-05 7.32422e-06 0.000102539 0.000131836 7.32422e-05 4.39453e-05 8.05664e-05 0 1.46484e-05 4.39453e-05 0.000161133 0.000200195 0.000126953 0.000187988 0.000227051 0.000236816 0.000222168 0.000134277 4.88281e-06 4.15039e-05 0.000219727 0.000131836 8.30078e-05 0.000100098 6.83594e-05 0.000227051 0.000234375 0.000195313 9.76563e-06 0.000180664 0.000227051 0.000144043 0.000200195 0.000178223 0.000117187 0.000224609 0.000144043 1.70898e-05 6.83594e-05 5.37109e-05 2.44141e-06 0.000195313 0.000112305 1.46484e-05 0.000202637 2.44141e-06 0.000183105 9.0332e-05 0.000146484 5.85937e-05 0.000170898 8.54492e-05 0.00020752 0.000212402 0.000151367 8.78906e-05 0.000195313 0.000212402 0.000183105 4.15039e-05 8.30078e-05 3.41797e-05 3.17383e-05 0.00013916 0.000178223 0.000234375 0.000148926 0.000234375 4.88281e-06 0.000114746 4.63867e-05 4.88281e-05 5.12695e-05 3.90625e-05 0.000192871 0.000112305 0.000183105 0.000114746 0.000117187 0.00017334 0.000163574 6.34766e-05 0.000227051 0.000195313 0.000185547 0.00019043 5.37109e-05 3.66211e-05 0.000236816 0.000183105 0.000192871 0.000151367 0.000102539 1.2207e-05 8.78906e-05 4.15039e-05 5.37109e-05 8.54492e-05 9.76563e-06 0.000114746 2.44141e-05 0.000202637 4.39453e-05 7.08008e-05 0.000197754 0.000219727 0.000148926 9.52148e-05 1.95313e-05 0.000148926 0.000161133 0.000202637 2.92969e-05 0.000205078 0 8.54492e-05 0.000170898 0.000141602 0.000200195 1.2207e-05 0.000209961 6.10352e-05 0.000217285 0.000178223 0.000134277 0.000214844 6.83594e-05 7.32422e-06 4.88281e-06 0.000170898 9.52148e-05 7.08008e-05 0.000129395 0.000236816 0.000109863 9.52148e-05 0.000112305 3.41797e-05 4.88281e-05 6.10352e-05 5.61523e-05 0.000202637 0.000170898 0.000197754 0.000175781 7.32422e-05 0.000109863 0.00020752 8.54492e-05 0.000126953 5.37109e-05 0.000212402 6.83594e-05 5.37109e-05 3.66211e-05 0.000175781 0.000141602 0.000161133 0.000170898 0.000229492 5.85937e-05 0.000141602 0.000129395 7.08008e-05 0.000222168 6.83594e-05 9.76563e-05 5.85937e-05 0.000114746 2.19727e-05 0.000205078 2.68555e-05 0.000126953 2.92969e-05 4.15039e-05 4.88281e-05 0.000231934 0.000187988 0.000129395 0.000209961 7.08008e-05 0.000114746 1.46484e-05 0.000158691 0.00010498 0.000227051 0.000161133 4.88281e-05 6.34766e-05 9.76563e-05 0.000144043 0.000231934 0.000178223 0.000236816 0.000170898 0.000100098 0.000187988 0.000187988 0.000144043 0.000187988 0.000148926 0.000180664 0.000109863 3.66211e-05 0.000112305 2.92969e-05 0.000187988 0.000119629 9.76563e-06 0.000117187 3.17383e-05 0.000161133 7.08008e-05 0.000222168 0.000114746 0.000222168 0.000151367 0.000180664 0.000212402 0.000119629 0.000146484 7.8125e-05 1.2207e-05 0.000229492 1.95313e-05 0.000170898 0.00019043 5.61523e-05 5.61523e-05 9.27734e-05 9.27734e-05 3.17383e-05 0.00017334 5.37109e-05 0.000153809 0.000114746 4.39453e-05 9.52148e-05 9.76563e-06 0.00015625 6.83594e-05 2.68555e-05 0.000107422 0.00020752 0.000112305 0.000234375 0.00017334 0.000100098 0.000129395 4.39453e-05 0.00020752 0.000141602 3.90625e-05 0 1.46484e-05 0.000241699 0.000161133 7.32422e-05 0.000236816 0.000175781 0.000224609 1.2207e-05 0.000151367 0.000161133 0.000239258 0.000175781 0.000229492 6.83594e-05 0.00017334 0.000109863 7.8125e-05 4.15039e-05 1.46484e-05 0.000114746 8.05664e-05 2.44141e-05 0.000170898 7.56836e-05 5.61523e-05 9.27734e-05 0.000227051 0.000126953 0.000163574 0.000129395 0.000178223 0.000224609 0.000166016 9.27734e-05 4.63867e-05 0.000114746 0.000117187 5.85937e-05 2.92969e-05 0.000151367 2.44141e-06 0.000219727 0.000178223 0.000146484 7.32422e-05 3.41797e-05 0.000151367 2.68555e-05 0.000114746 0.000192871 3.66211e-05 2.68555e-05 0.000161133 0.000183105 0.00013916 7.56836e-05 0.000234375 0.000163574 0.000161133 3.90625e-05 9.52148e-05 0.000175781 0.00017334 0.000209961 5.12695e-05 0.000219727 0.000200195 8.78906e-05 3.17383e-05 0.000114746 7.08008e-05 0.000134277 8.78906e-05 0.000141602 0.000168457 7.32422e-05 0.000222168 7.08008e-05 2.44141e-05 3.17383e-05 3.90625e-05 0.000183105 0.000180664 9.52148e-05 0.000151367 4.39453e-05 3.90625e-05 0.000136719 0.00015625 0.000224609 7.56836e-05 6.5918e-05 9.76563e-05 5.85937e-05 9.52148e-05 0.000214844 9.76563e-06 0.000224609 2.92969e-05 0.00020752 0.000109863 0.000119629 4.15039e-05 0.000151367 9.76563e-06 0.000239258 7.32422e-05 0.000183105 4.88281e-06 0 0.000214844 4.15039e-05 0.000209961 0.000200195 1.95313e-05 0.000195313 0.000168457 0.000117187 0.000202637 7.56836e-05 0.000129395 0.000168457 0.00020752 0.000117187 0.000180664 6.10352e-05 7.08008e-05 0.000158691 0.000100098 0.00015625 9.76563e-06 0.000163574 0.000227051 9.0332e-05 8.78906e-05 0.000124512 0.000202637 5.37109e-05 9.52148e-05 0.000229492 0.000109863 0.000146484 6.83594e-05 6.10352e-05 0.000144043 0.000239258 0.00020752 5.85937e-05 0.000170898 2.19727e-05 3.17383e-05 7.32422e-06 0.000158691 4.88281e-06 0.000166016 0.000212402 2.19727e-05 5.61523e-05 0.00020752 0.000112305 7.32422e-06 0.000112305 0.000231934 0.000148926 7.32422e-06 0.000224609 0.000183105 4.88281e-05 9.52148e-05 0.000239258 0.000227051 0.000163574 0.000100098 0.00019043 4.15039e-05 0.000146484 0.000112305 0.00017334 2.92969e-05 0.00019043 0.000114746 0.000117187 5.61523e-05 0.000126953 0.000229492 0.00012207 6.5918e-05 6.83594e-05 0.000119629 0.000168457 1.2207e-05 0.000209961 0.000117187 0.000239258 0.000234375 6.5918e-05 0.000148926 7.32422e-05 0.000187988 0.000153809 0.000124512 0.000100098 0.000134277 4.63867e-05 0.00010498 0.000214844 8.54492e-05 0.000192871 0.00010498 0.000183105 0.000168457 4.63867e-05 0.000114746 0.000124512 4.88281e-05 0.000212402 1.70898e-05 6.5918e-05 3.41797e-05 8.78906e-05 0.000229492 0.000217285 3.90625e-05 1.2207e-05 2.68555e-05 8.78906e-05 0.000224609 0.000170898 0.000100098 0.00017334 2.92969e-05 0.000241699 0.000114746 6.83594e-05 4.88281e-06 0.000129395 8.30078e-05 0.000239258 4.88281e-05 7.08008e-05 0.000151367 0.000234375 0.000112305 2.19727e-05 0.000202637 9.76563e-06 8.05664e-05 0.000183105 0.000222168 0.000241699 0.000141602 4.39453e-05 0.000185547 1.2207e-05 7.8125e-05 0.000114746 2.92969e-05 0.000134277 0.000183105 9.0332e-05 0.000148926 7.32422e-06 2.44141e-06 0.000197754 1.46484e-05 0.000202637 3.17383e-05 4.15039e-05 0.000148926 0.000131836 7.08008e-05 0.000209961 0.000241699 0.000117187 8.78906e-05 4.63867e-05 0.000236816 0.000234375 0.000197754 2.92969e-05 3.90625e-05 0.000124512 0.000231934 0.000153809 0.000153809 3.41797e-05 6.10352e-05 0.000217285 0.000212402 2.92969e-05 0.000107422 0.000214844 0.000144043 0.000119629 7.32422e-05 3.90625e-05 0.000209961 4.39453e-05 3.17383e-05 0.000166016 0.000180664 8.30078e-05 4.15039e-05 5.37109e-05 0.000229492 0.000217285 0.000112305 0.000158691 0.000170898 0.000222168 0.000109863 5.37109e-05 0.000158691 0.000134277 0 8.05664e-05 0.000202637 0.000117187 0.000148926 0.000161133 5.12695e-05 0.000192871 9.52148e-05 0.000234375 4.15039e-05 0.000180664 9.52148e-05 0.000185547 0.000239258 8.05664e-05 0.000151367 0.000109863 0.000214844 5.61523e-05 0.000219727 0.000180664 9.76563e-05 0.000175781 0.00012207 1.95313e-05 0.000102539 0.000117187 6.10352e-05 0.000229492 9.27734e-05 8.30078e-05 0.000131836 9.27734e-05 8.78906e-05 1.46484e-05 0.00013916 0.000183105 0.000185547 0.000195313 0.000102539 0.000107422 0.000102539 0.000102539 0.000222168 0.000239258 0.000239258 0.00010498 7.56836e-05 6.83594e-05 0.000112305 0.000178223 0.000195313 0.000158691 0.000192871 0.00015625 0 4.63867e-05 0.000219727 0.000168457 0.000195313 1.70898e-05 4.63867e-05 9.27734e-05 0.00020752 8.30078e-05 0.000202637 7.32422e-05 0.000224609 0.000180664 1.2207e-05 7.32422e-05 1.46484e-05 0.000224609 0.000180664 0.000129395 9.52148e-05 9.76563e-05 6.34766e-05 0.000219727 0.000234375 0.000109863 7.32422e-05 1.95313e-05 2.92969e-05 0.000214844 7.8125e-05 5.61523e-05 0.000129395 0.000202637 0.000126953 5.85937e-05 0.000231934 0.000170898 9.76563e-06 0.000148926 0.000126953 0.000205078 0.00012207 6.34766e-05 0.000163574 4.15039e-05 9.0332e-05 6.5918e-05 6.34766e-05 0.000195313 0.000217285 0.000192871 7.56836e-05 0.000148926 1.46484e-05 0.000234375 2.68555e-05 8.05664e-05 0.000202637 0.000126953 0.000239258 6.10352e-05 9.76563e-05 0.000134277 0.000187988 0.000229492 9.0332e-05 0.00012207 0.000100098 0.000131836 0.000180664 0.000214844 0.000153809 0 0.000163574 0.00017334 2.19727e-05 0.000214844 4.39453e-05 5.12695e-05 9.76563e-05 0.000227051 0.000222168 0.000231934 8.30078e-05 2.44141e-05 0.000183105 1.46484e-05 0.000158691 0.00010498 0.000197754 8.78906e-05 2.19727e-05 0.000141602 5.12695e-05 0.00013916 0.00010498 6.34766e-05 4.39453e-05 0.000144043 0.000124512 0.000222168 0.000222168 0.000222168 0.000153809 9.27734e-05 0.000224609 0.000109863 7.8125e-05 0.000227051 0.000112305 0.000129395 0.000214844 0.000141602 0.000205078 0.00010498 9.76563e-05 2.44141e-06 0.000212402 0.000124512 0.000227051 8.78906e-05 7.8125e-05 6.34766e-05 0.000180664 0.000222168 0.000119629 0.000187988 0.00015625 7.56836e-05 0.000151367 0.000231934 2.92969e-05 0.000178223 7.8125e-05 0.000227051 9.76563e-06 0.000151367 0.000202637 0.000166016 0.000107422 0.000180664 0.000153809 0.000114746 5.61523e-05 0.000126953 1.95313e-05 1.2207e-05 7.32422e-06 0.000100098 0.00010498 0.000119629 8.05664e-05 3.66211e-05 0.000109863 0.000214844 0.000185547 0.000229492 1.46484e-05 0.000202637 0.000153809 7.32422e-06 1.95313e-05 0.000178223 9.0332e-05 0.00013916 0.000227051 0.000175781 0.000197754 0.000129395 0.000153809 0.000222168 0.000102539 6.5918e-05 7.56836e-05 0.000112305 0.000168457 0.000141602 0.000153809 0.000239258 0.000146484 0.000161133 0.00015625 4.88281e-06 0.000158691 0 6.34766e-05 7.56836e-05 6.83594e-05 0.000158691 7.32422e-05 0.000151367 0.000158691 0.000205078 0.000141602 0.000192871 0.000148926 0.000141602 0.000202637 0.000141602 0.000144043 0.000163574 0.000134277 9.52148e-05 0.000200195 3.41797e-05 0.000136719 0.000205078 0.00013916 9.76563e-05 0.00020752 0.000100098 0.000112305 0.000178223 0.000195313 8.54492e-05 2.44141e-05 4.63867e-05 0.000195313 6.34766e-05 0.000227051 6.5918e-05 0.000163574 5.85937e-05 0.000100098 0.000148926 0.000114746 0.000163574 3.41797e-05 0.000214844 0.000224609 0.000166016 0.000197754 0.000170898 0.000119629 9.76563e-06 1.70898e-05 6.10352e-05 0 0.00010498 0.000224609 9.27734e-05 0.000183105 5.85937e-05 0.000112305 0.000129395 0.000109863 0.000224609 7.8125e-05 3.17383e-05 2.68555e-05 0.000212402 7.8125e-05 2.44141e-06 0.000212402 0.000144043 7.8125e-05 0.000153809 1.70898e-05 0.000151367 0.000187988 0.000126953 0.000151367 1.46484e-05 0.000234375 0.000185547 0.00015625 0.00012207 5.37109e-05 0.000183105 4.88281e-06 0.000234375 5.12695e-05 0.000178223 7.56836e-05 0.000100098 0.00010498 0.000229492 0.000129395 2.44141e-06 7.32422e-05 0.000158691 0.000224609 6.83594e-05 0.00013916 8.30078e-05 0.000168457 0.000126953 0.000219727 8.05664e-05 9.0332e-05 0.000146484 0.000224609 0.00020752 3.66211e-05 0.000144043 0.000222168 0.000185547 4.88281e-05 2.19727e-05 0.000209961 0.000109863 0.00012207 7.56836e-05 0.000158691 0.000185547 0.000134277 0.000131836 0.00017334 0.000109863 0.000131836 3.41797e-05 0.000119629 9.52148e-05 0.000217285 8.30078e-05 1.70898e-05 4.88281e-06 0.000109863 8.54492e-05 0.000170898 5.61523e-05 7.32422e-06 5.85937e-05 0.000144043 0.000114746 0.00013916 0.000100098 7.56836e-05 0.00017334 0.000168457 0.00020752 3.90625e-05 0.000180664 3.90625e-05 0.000224609 0.000202637 0.000134277 0.000178223 7.08008e-05 6.34766e-05 0.000109863 2.44141e-05 7.32422e-05 0.000175781 0.000185547 0.000175781 0.00013916 0.000192871 2.44141e-05 0.000144043 0.000144043 1.2207e-05 8.05664e-05 0.000166016 0.000214844 8.05664e-05 7.56836e-05 0.00010498 2.44141e-05 4.88281e-05 1.95313e-05 0.000153809 0.000119629 4.63867e-05 7.32422e-05 0.000214844 2.44141e-05 0.000107422 0.000241699 4.63867e-05 8.30078e-05 6.10352e-05 4.88281e-06 8.54492e-05 0.000102539 0.000136719 0.000153809 1.70898e-05 0.00013916 0.000224609 0.000136719 0.000183105 4.88281e-06 0.000239258 9.76563e-06 7.08008e-05 5.37109e-05 0.000231934 0.000214844 0.000178223 0.000124512 0.000168457 0.000192871 0.00012207 2.44141e-05 6.83594e-05 0.000102539 8.30078e-05 7.32422e-06 0.000224609 1.70898e-05 4.63867e-05 2.68555e-05 0.000107422 0.000195313 4.88281e-05 0.000219727 0 0.000234375 0.000146484 0.000227051 5.61523e-05 8.54492e-05 2.44141e-06 0.000131836 7.32422e-05 0.000144043 2.92969e-05 8.54492e-05 0.000197754 7.32422e-05 8.30078e-05 7.8125e-05 0.000231934 0.000214844 0.000112305 0.000117187 0.000163574 0.000166016 0.000102539 9.0332e-05 1.46484e-05 4.63867e-05 7.32422e-06 0.000239258 3.41797e-05 9.76563e-05 0.000187988 0.000170898 0.000100098 4.88281e-05 7.32422e-05 0.000153809 9.52148e-05 7.8125e-05 0.000158691 6.83594e-05 0.000126953 7.56836e-05 0.000112305 8.54492e-05 0.000209961 8.05664e-05 6.83594e-05 2.19727e-05 0.00013916 0.000117187 0.000241699 0.00010498 0.000192871 0.000151367 0.000185547 9.0332e-05 0.00019043 6.83594e-05 0.000151367 2.19727e-05 0.000146484 1.46484e-05 0.000239258 0.000239258 0.000231934 4.39453e-05 0.000195313 0.000158691 8.05664e-05 0.000168457 0.00010498 0.000224609 0.000227051 0.000153809 0.000134277 9.0332e-05 0.000151367 0.000161133 0.000170898 0.000219727 5.85937e-05 0.000209961 0.000219727 0.000112305 0.000168457 8.78906e-05 0.000214844 0.00019043 0.000178223 0.00015625 0.000136719 0.000141602 0.000148926 0.000224609 5.61523e-05 0.000100098 0.000187988 0.000141602 9.76563e-05 8.78906e-05 4.88281e-05 0.000129395 0.000224609 7.32422e-05 0.000126953 0.00010498 0.000166016 5.61523e-05 4.39453e-05 0.000146484 6.83594e-05 0.000170898 0.000241699 0.000180664 7.08008e-05 3.66211e-05 7.8125e-05 2.44141e-06 0.00010498 0.000219727 6.5918e-05 0.000180664 0.000185547 7.32422e-05 0.000219727 0.000107422 0.000185547 0.000217285 0.000124512 0.000117187 0.000178223 0.000205078 0.000178223 5.85937e-05 0.00012207 0.000197754 1.70898e-05 0.00017334 0.00017334 0.000192871 0.000131836 9.76563e-05 3.66211e-05 7.32422e-05 0.000241699 0.000227051 0.000151367 9.76563e-06 0.000129395 6.10352e-05 0.000212402 0.000134277 0.000214844 2.68555e-05 0.000195313 2.92969e-05 0.000183105 2.44141e-06 7.08008e-05 0.000117187 4.63867e-05 0.000109863 7.32422e-06 4.15039e-05 5.85937e-05 4.63867e-05 1.46484e-05 0.000170898 7.32422e-06 6.83594e-05 0.000217285 0.000151367 6.10352e-05 0.000148926 0.000227051 9.27734e-05 0.000195313 0.000170898 0.000163574 2.44141e-05 9.52148e-05 9.76563e-05 0.00020752 0.000183105 0.000170898 0.000109863 0.000134277 7.32422e-05 0.000241699 0.000241699 9.27734e-05 0.000192871 0.000209961 0.000195313 0.000229492 3.41797e-05 5.85937e-05 0.000158691 2.44141e-06 0.000187988 0.000161133 0.000168457 0.000114746 0.00015625 3.90625e-05 0.00017334 0.000183105 0.00012207 8.05664e-05 0.000187988 4.39453e-05 7.08008e-05 0.000222168 1.70898e-05 0.000200195 9.76563e-06 0.000175781 0.000212402 6.10352e-05 0.000102539 0.000102539 0.000163574 0.000175781 0.000236816 0.00017334 0.000161133 4.88281e-06 0.000136719 0.000131836 4.39453e-05 0.00020752 0.000161133 5.85937e-05 0.000151367 6.83594e-05 0.000197754 0.000151367 0.000112305 6.10352e-05 0.000170898 7.32422e-05 7.56836e-05 0.00013916 7.08008e-05 2.44141e-06 0.000197754 9.76563e-05 4.39453e-05 5.85937e-05 0.000229492 0.000183105 0.000197754 2.44141e-06 0.000234375 4.15039e-05 9.76563e-06 0.000234375 0.000219727 0.000124512 0.000241699 3.17383e-05 0.000163574 0.000234375 0.000217285 3.90625e-05 4.63867e-05 0.000212402 0.000107422 0.000146484 6.5918e-05 0.000126953 0.000148926 3.90625e-05 6.5918e-05 0.000141602 0.000109863 2.92969e-05 0.000102539 2.44141e-06 2.68555e-05 8.30078e-05 8.78906e-05 0.000144043 0.000192871 8.78906e-05 0.00017334 0.000180664 0.000209961 0.00013916 0.000214844 8.30078e-05 0.000231934 7.32422e-05 5.61523e-05 0.000119629 0.00012207 0.000124512 8.05664e-05 2.44141e-05 5.61523e-05 0.000239258 0.000187988 3.41797e-05 8.78906e-05 9.52148e-05 1.2207e-05 6.83594e-05 0.000209961 7.8125e-05 0.00017334 5.85937e-05 0.000161133 4.88281e-05 0.000224609 0.000229492 9.76563e-05 0.000151367 9.27734e-05 0.000234375 0.000117187 0.000144043 8.78906e-05 0.000168457 8.78906e-05 4.88281e-05 6.34766e-05 0.000192871 9.76563e-05 0.00020752 9.76563e-05 0.000195313 4.88281e-05 3.66211e-05 5.85937e-05 4.88281e-05 0.000231934 6.34766e-05 0.000200195 0.000170898 7.08008e-05 0.000134277 0.000170898 0.000129395 3.41797e-05 0.000163574 4.63867e-05 0.00015625 7.32422e-06 3.90625e-05 1.70898e-05 0.000109863 0.000209961 3.41797e-05 0.000144043 3.17383e-05 4.15039e-05 0.000224609 4.15039e-05 9.76563e-06 9.76563e-06 0.000178223 0.00012207 4.15039e-05 0.000195313 3.90625e-05 0.000148926 0.000231934 6.34766e-05 1.46484e-05 5.12695e-05 0.000219727 0.000124512 8.30078e-05 2.44141e-05 1.70898e-05 0.000107422 1.46484e-05 5.61523e-05 5.37109e-05 3.41797e-05 0.000151367 0.00012207 1.70898e-05 2.92969e-05 0.000100098 0.000224609 4.63867e-05 0.000175781 0.000102539 5.61523e-05 4.63867e-05 9.27734e-05 0.000202637 0.000227051 8.05664e-05 0.00019043 0.000136719 0.000163574 0.00019043 8.05664e-05 0.000134277 0.000151367 5.61523e-05 0.00017334 0.000195313 0.000205078 0.000234375 0.000234375 0.000180664 3.66211e-05 0.00019043 3.66211e-05 0.000212402 0.000227051 0.000185547 6.34766e-05 8.05664e-05 3.66211e-05 0.000178223 7.56836e-05 0.000227051 0.000175781 9.76563e-05 6.34766e-05 0.000136719 8.78906e-05 0.00010498 0.00015625 0.000124512 0.000141602 0.000136719 0.00010498 0.000205078 6.10352e-05 1.2207e-05 9.76563e-05 0.000144043 0.000200195 1.70898e-05 0.000239258 0.00012207 5.61523e-05 0.00012207 0.000222168 0.000163574 8.30078e-05 8.30078e-05 0.000114746 0.000217285 0.000129395 0.000148926 0.000163574 0.000141602 0.000205078 6.5918e-05 9.76563e-05 9.76563e-05 6.83594e-05 7.32422e-05 4.88281e-05 0.00010498 9.52148e-05 8.54492e-05 0.000170898 0.000109863 9.52148e-05 8.78906e-05 3.17383e-05 0.000231934 0.000134277 0.000107422 7.08008e-05 0.000205078 0.000205078 0.000117187 0.000229492 7.32422e-06 0.000224609 1.95313e-05 0.000117187 0.00012207 0.000178223 7.08008e-05 4.88281e-05 0.000175781 1.95313e-05 6.83594e-05 0.000241699 0.000219727 0.00015625 9.52148e-05 0.000166016 0.000229492 2.92969e-05 4.88281e-06 2.92969e-05 7.32422e-06 0.000114746 3.90625e-05 0.000124512 9.0332e-05 0.000126953 0.000144043 0.000219727 0.000166016 3.17383e-05 0.000131836 2.68555e-05 5.61523e-05 3.90625e-05 0.00019043 0.000129395 7.56836e-05 0.000222168 0.000241699 8.05664e-05 0.000234375 0.000134277 8.54492e-05 0.000205078 8.54492e-05 0.000107422 0.000192871 0.000239258 0.000214844 1.95313e-05 0.00013916 0.000131836 0.000141602 4.88281e-06 0.000109863 3.41797e-05 6.10352e-05 2.92969e-05 4.88281e-05 8.30078e-05 0.000163574 4.88281e-06 0.00010498 9.76563e-06 0.000102539 4.15039e-05 0 2.44141e-05 0.000217285 0 3.17383e-05 0.000136719 0.000197754 7.32422e-05 0.000224609 5.61523e-05 2.44141e-05 0.000214844 7.32422e-05 7.32422e-06 0.000180664 0.000205078 0.000126953 8.78906e-05 0.00020752 0.000163574 0.000214844 4.88281e-06 0.000131836 7.32422e-06 0.000117187 0.000239258 0.00013916 0.000144043 6.34766e-05 7.56836e-05 0.000158691 0.000163574 0.000209961 0.000202637 0.000205078 8.54492e-05 0.00013916 7.32422e-06 8.78906e-05 7.56836e-05 5.61523e-05 0.00015625 6.83594e-05 0.000217285 0 0.000112305 4.88281e-05 6.34766e-05 4.63867e-05 0.000197754 0.000168457 0.000131836 0.00017334 3.66211e-05 0.000107422 0.00013916 1.2207e-05 0.000187988 4.15039e-05 0.000158691 3.17383e-05 0.000227051 5.61523e-05 0.000239258 0.000224609 5.61523e-05 0.000134277 0.000195313 0.000180664 6.5918e-05 0.000146484 0.00013916 1.2207e-05 0.000192871 1.2207e-05 0.000209961 0.000161133 7.08008e-05 0.000119629 0.000119629 2.44141e-05 7.32422e-06 0.000239258 0.000114746 6.5918e-05 0.000224609 2.19727e-05 0.000163574 1.95313e-05 0.00012207 0.000166016 0.000205078 2.68555e-05 0.000219727 9.0332e-05 1.70898e-05 6.34766e-05 9.76563e-06 2.44141e-05 0.000224609 0.000107422 4.88281e-05 0.000102539 6.10352e-05 5.85937e-05 4.63867e-05 7.8125e-05 6.5918e-05 8.30078e-05 0.000209961 0.000109863 0.000151367 0.000129395 7.8125e-05 0.000170898 3.66211e-05 0.000119629 0.000180664 3.66211e-05 4.88281e-05 0.000217285 0.000117187 0.000178223 4.39453e-05 0.000146484 0.000229492 0.000212402 4.15039e-05 0.000185547 0.000195313 7.32422e-06 0.000109863 2.68555e-05 9.0332e-05 0.000151367 6.10352e-05 0.000129395 0.000239258 0.000100098 0.000187988 2.44141e-05 0.000219727 0.00012207 0.000163574 0.000234375 0.000129395 5.85937e-05 2.44141e-06 0.000153809 1.2207e-05 0.000209961 6.83594e-05 0.000227051 5.85937e-05 8.05664e-05 0.000129395 0 0.000107422 1.95313e-05 3.17383e-05 0.000112305 0.00015625 5.61523e-05 0.000131836 0.000202637 2.92969e-05 0.000222168 7.8125e-05 4.15039e-05 0.000180664 0.000180664 0.000183105 7.8125e-05 0.000119629 0.000227051 0.000241699 8.54492e-05 0.000170898 9.27734e-05 0.000227051 7.56836e-05 8.05664e-05 1.70898e-05 0.000175781 0.000200195 0.000200195 0.000146484 0.000126953 0.000163574 0.00020752 5.85937e-05 1.46484e-05 0.000224609 0.000212402 1.2207e-05 0.000195313 9.76563e-06 0.000183105 6.34766e-05 0.000131836 3.41797e-05 0.00015625 1.95313e-05 1.2207e-05 1.46484e-05 0.000192871 0.000158691 3.66211e-05 3.41797e-05 1.46484e-05 8.05664e-05 5.85937e-05 0.000183105 0.000180664 0.00020752 4.63867e-05 0.000170898 3.41797e-05 0.000168457 0.000134277 2.44141e-06 0.000161133 0.000214844 9.76563e-06 3.66211e-05 8.54492e-05 0.000212402 0.000236816 0.000112305 6.5918e-05 0.000200195 0.000234375 0.000161133 8.54492e-05 0.000161133 0.000234375 8.30078e-05 0.000222168 0.000107422 0.000178223 7.32422e-05 1.70898e-05 0 0.000178223 5.12695e-05 0.000202637 0.000119629 9.0332e-05 0.000117187 7.8125e-05 0.000205078 3.66211e-05 4.88281e-06 0 9.76563e-05 0.000183105 8.05664e-05 0.000180664 4.15039e-05 4.88281e-05 0.00020752 1.95313e-05 9.76563e-06 0.00020752 9.76563e-05 2.19727e-05 0.000100098 0.000222168 0.000209961 1.46484e-05 7.32422e-05 4.88281e-05 5.12695e-05 8.54492e-05 1.95313e-05 0.00015625 0.000136719 0.00012207 5.61523e-05 0.000134277 0.000222168 0.000241699 9.27734e-05 0.000144043 1.70898e-05 0.00019043 0.000192871 0.000126953 0.000114746 0.000236816 0.000117187 3.17383e-05 6.34766e-05 0.000229492 0.000222168 3.17383e-05 4.63867e-05 0.000146484 9.76563e-06 0.000180664 7.08008e-05 0.000109863 4.88281e-05 0 0.000197754 0.000183105 0.00015625 0.000148926 0.000175781 8.05664e-05 0.00012207 0.000146484 6.10352e-05 2.44141e-06 0.00017334 7.8125e-05 0.000200195 0.000212402 6.34766e-05 6.34766e-05 0.000180664 0.000117187 0.000107422 0.000197754 0.00017334 0.000146484 8.78906e-05 7.8125e-05 9.0332e-05 0.000197754 0.000148926 0.000102539 7.56836e-05 0.000161133 7.32422e-05 5.37109e-05 3.90625e-05 0.000153809 0.00020752 0.000197754 0.00020752 0.000236816 0.000163574 0.000166016 6.10352e-05 1.95313e-05 6.34766e-05 0.000205078 0.000146484 0.000131836 7.08008e-05 0.000197754 0.000107422 0.000134277 0.000175781 0.00010498 0.000227051 5.61523e-05 0.000124512 6.5918e-05 2.19727e-05 0.000214844 0.00015625 9.0332e-05 0.000214844 0.000236816 8.54492e-05 0.00020752 0.000126953 0.000131836 0.000141602 0.000192871 4.39453e-05 0.000100098 8.05664e-05 6.5918e-05 2.68555e-05 2.19727e-05 0.000146484 3.17383e-05 0.000180664 1.95313e-05 0.000131836 0.000170898 0.00017334 0.000170898 2.19727e-05 0.000153809 0.000148926 0.000163574 0.000183105 9.0332e-05 0.000153809 0.000197754 0.000170898 0.000200195 0.000166016 8.78906e-05 0 0.00020752 5.61523e-05 6.34766e-05 0.000195313 0.000224609 5.12695e-05 0.000163574 8.05664e-05 0.000102539 5.61523e-05 3.66211e-05 7.8125e-05 7.56836e-05 0.000209961 4.15039e-05 0 0.00015625 0.000131836 0.000224609 0.000170898 3.41797e-05 0.000100098 2.92969e-05 1.2207e-05 7.32422e-06 0.000114746 2.92969e-05 2.68555e-05 9.27734e-05 0.000241699 0.000119629 0.000117187 0.000192871 4.63867e-05 0.000100098 5.61523e-05 7.56836e-05 3.17383e-05 0.000197754 0.000183105 3.90625e-05 3.17383e-05 0.000224609 2.68555e-05 0.000136719 0.000151367 3.17383e-05 0.000197754 0.00017334 2.44141e-06 0.000112305 3.90625e-05 0.000124512 8.54492e-05 0.00012207 0.000146484 4.88281e-05 0.000217285 0.000136719 0.000219727 0.000202637 0.000187988 0.000102539 0.000224609 0.000119629 2.68555e-05 0.000195313 7.32422e-05 0.000136719 0.000192871 0.000146484 0.000219727 0.00019043 0.000129395 0.000209961 1.2207e-05 0.000131836 6.83594e-05 0.000175781 0.000102539 0.000212402 0.000183105 1.95313e-05 0.000180664 4.88281e-06 0.000102539 0.000100098 0.00020752 3.90625e-05 8.05664e-05 9.27734e-05 4.88281e-05 0.000175781 0.000161133 0.000129395 7.32422e-06 3.41797e-05 3.66211e-05 3.66211e-05 0.000131836 0.00017334 7.08008e-05 0.000195313 8.30078e-05 0.000124512 6.5918e-05 4.88281e-06 7.08008e-05 0.000168457 3.41797e-05 8.05664e-05 0.000112305 2.19727e-05 0.000131836 1.46484e-05 0.000129395 0.000107422 0.000227051 0.000117187 2.68555e-05 0.000114746 9.52148e-05 9.52148e-05 0.000217285 9.0332e-05 0.000219727 0.000229492 2.44141e-05 0.00010498 0.000163574 0.000161133 0.000209961 0.000217285 0.000117187 6.10352e-05 0.000126953 0.000134277 8.54492e-05 0.00015625 0.000185547 0.000134277 0.000192871 2.19727e-05 0.000209961 0.000224609 0.000148926 0.000214844 0.000158691 0.00015625 0.000209961 9.76563e-06 0.000163574 7.32422e-05 0.000114746 0.000136719 0.000134277 0.000134277 0.000109863 2.68555e-05 0.000236816 2.44141e-05 0.000124512 0.000100098 0.000144043 9.0332e-05 3.90625e-05 0.000192871 0.000205078 9.27734e-05 0.000227051 2.92969e-05 0.000178223 0.000112305 3.66211e-05 0.000117187 0.000178223 0.00020752 9.76563e-06 0.00013916 7.08008e-05 6.34766e-05 3.90625e-05 0.000109863 7.8125e-05 0.000185547 0.00012207 0.000107422 5.12695e-05 0.000119629 4.88281e-05 0.000212402 9.52148e-05 0.000102539 0.000153809 8.54492e-05 0.000195313 4.88281e-05 0.00019043 7.08008e-05 5.12695e-05 2.19727e-05 2.44141e-06 2.44141e-05 0.000148926 5.12695e-05 0.000109863 4.88281e-06 0.000195313 0.000163574 0.000183105 0.000163574 1.2207e-05 0.00010498 0.000114746 0.000114746 3.90625e-05 0.000141602 0.000131836 0.000180664 0.000148926 4.88281e-05 0.000100098 2.19727e-05 9.0332e-05 0.000166016 4.63867e-05 0.000236816 0.000239258 0.000205078 0.000107422 0.000166016 0.000205078 7.32422e-06 1.95313e-05 1.2207e-05 0.000202637 2.44141e-06 0.000153809 0.000222168 4.88281e-06 2.44141e-05 0.00019043 0.000224609 0.000153809 0.000158691 0.00017334 0.000200195 0.000195313 0.000102539 0.000195313 1.2207e-05 5.85937e-05 2.44141e-05 7.32422e-05 0.000239258 0.000112305 1.46484e-05 0.000124512 0.000231934 7.8125e-05 6.5918e-05 0.000224609 0.000136719 0.000119629 4.88281e-05 1.95313e-05 4.88281e-06 0.000146484 0.000129395 0.000214844 9.27734e-05 0.000136719 0.00012207 4.88281e-06 0.000148926 1.95313e-05 0.000153809 0.000117187 0.000158691 0.00019043 6.34766e-05 8.05664e-05 0.000200195 0.000158691 3.17383e-05 0.000100098 3.41797e-05 0.000124512 1.70898e-05 8.54492e-05 0.000119629 0.000195313 0.00020752 7.8125e-05 0.00013916 0.00019043 0.000129395 0.000114746 0.000129395 0.000124512 0.00013916 0.000107422 0.000100098 5.37109e-05 0.000117187 0.000119629 0.000129395 6.5918e-05 -0.000532842 0.000759349 8.26756e-05 -0.000669026 -0.00302315 -0.000538496 0.000773871 0.000745633 -0.000551838 0.000825327 1.36845e-05 -0.000712328 0.000709852 -0.000570463 -0.000387357 0.000798644 -8.35005e-05 0.00017253 0.000860675 -0.000301602 0.000828845 0.000738648 -0.000694697 0.000851838 -3.93925e-05 0.000911764 0.000679984 0.000846855 -6.11671e-05 0.000859306 0.000524453 -0.00048036 -0.00046373 0.000923129 0.000765639 0.000725352 0.000880463 0.000132473 0.000733658 -0.000517149 -0.000994112 0.00091317 0.000797717 -0.000327412 0.000901501 0.000751505 0.000628687 -1.2661e-05 0.000806279 -0.000628518 0.000359322 -0.000532289 0.000885047 1.02384e-05 -0.000712871 0.000796335 0.000888703 -0.00072632 -0.000608043 0.000728778 0.0035119 0.00112404 -0.000557581 3.55412e-05 -0.000645147 0.000786205 -1.98635e-05 -0.000522542 -0.00306222 -0.000616621 0.000859321 0.000628446 -0.000564045 0.000722787 3.56572e-05 -0.000692797 0.000892957 -0.000648588 -0.000499661 0.000849913 7.76323e-05 9.92874e-05 0.000914386 -0.000487148 0.000853259 0.000748414 -0.00064831 0.000666291 -2.47441e-05 0.000762838 0.000667777 0.000849296 6.09032e-05 0.000856865 0.000553749 -0.000551161 -0.000429551 0.000808383 0.000824233 0.000705821 0.000887788 -2.62184e-05 0.000799576 -0.000634336 -0.000837862 0.000935143 0.000866077 -0.000378682 0.000708629 0.000783243 0.000623804 -1.75438e-05 0.00068665 -0.000460061 0.000310494 -0.000603089 0.000828895 -0.000109391 -0.000717754 0.000847605 0.000759308 -0.000567628 -0.000666637 0.000738544 0.00357293 0.00118019 -0.000450159 5.75139e-05 2.68555e-05 5.12695e-05 0.000114746 0.000236816 3.90625e-05 0.000131836 6.5918e-05 0.000158691 9.0332e-05 0.000119629 0.000212402 4.88281e-05 9.52148e-05 0.000227051 3.66211e-05 0.000153809 0.000141602 0.000202637 0.000209961 4.88281e-05 0.00012207 0.000209961 0.000212402 0.000202637 0.000219727 3.66211e-05 0.000153809 1.70898e-05 5.85937e-05 0.000239258 0.000239258 5.61523e-05 4.39453e-05 0.000117187 0.000124512 3.90625e-05 0.000195313 0.00017334 9.52148e-05 8.30078e-05 4.88281e-06 0.00017334 3.90625e-05 0.000151367 9.52148e-05 0.000170898 0.000136719 8.30078e-05 0.000227051 9.27734e-05 0.000124512 0.000114746 0.00010498 0.000227051 2.44141e-06 0.000131836 0.000175781 2.19727e-05 4.88281e-06 0.000180664 0.000170898 0.000180664 2.44141e-05 0.000109863 3.90625e-05 0.00020752 0.000107422 0.000129395 0.000241699 0.00012207 7.8125e-05 3.17383e-05 6.5918e-05 1.95313e-05 0.000175781 8.78906e-05 6.83594e-05 0.000222168 5.12695e-05 6.10352e-05 7.32422e-06 0.000131836 8.30078e-05 1.95313e-05 0.000219727 0.000151367 0.000109863 0.000231934 0.000114746 0.000212402 9.76563e-05 6.10352e-05 8.05664e-05 0.000168457 0.000158691 4.63867e-05 0.000231934 0.000200195 0.000239258 0.000214844 0.000239258 0.000212402 0.000195313 0.000200195 6.83594e-05 9.76563e-05 0.000180664 0.000197754 3.41797e-05 0.000231934 0.000217285 4.88281e-05 0.000200195 0.000153809 0.000129395 0.000229492 0.00019043 7.08008e-05 7.56836e-05 0.000222168 4.15039e-05 6.5918e-05 6.83594e-05 0.000222168 0.000168457 3.17383e-05 9.76563e-06 0.000209961 -0.000306808 0.000550696 0.000276745 -0.0026694 0.0042144 -0.000860664 0.000478567 0.00125363 -0.000249735 0.000498294 0.000132089 -0.00096342 0.000614005 -0.000302874 -0.000418595 0.000418898 0.000176398 0.000241636 0.000492147 -0.00194977 0.000497642 0.000515598 -0.000575663 0.000331335 0.000233617 0.000573948 -0.000480432 0.000585635 -0.000801658 0.000424916 -0.00151859 -0.00063625 -0.000481076 0.000450753 0.000278102 0.000534336 0.0004456 0.000509409 0.00053188 -0.0013784 0.00198876 0.000404821 0.000632974 -0.000270694 0.000403905 0.0005094 0.000445 0.000946317 0.000450279 -0.000235725 -0.000702385 -0.000308923 0.000476543 -0.000937848 -0.000285884 0.000673692 0.000397003 -0.000271562 -0.000599322 0.000946633 0.000634778 -0.000657167 -0.000528165 0.000794948 -0.0215767 0.0194767 0.000508887 -0.0736546 0.050648 -0.0386327 0.0178318 0.0109733 0.009903 0.0172394 -0.0214253 -0.0391125 0.0174752 -0.0220173 -0.0378255 0.0171411 -0.0308432 0.0049514 0.0189614 0.00584046 0.017227 0.0188065 -0.0465072 0.0147129 0.00912643 0.0177726 -0.0569978 0.0206809 -0.0380069 0.0162999 -0.0635499 -0.0334596 -0.0384678 0.0185008 -0.012569 0.01918 0.019259 -0.0283273 0.0195346 -0.0491505 0.063914 0.0167508 0.0183733 -0.0113666 0.0168506 0.0187093 0.0147937 0.0334184 0.0184294 -0.022384 -0.0506781 -0.0211125 0.0140074 -0.042312 0.00455528 0.0244005 0.0141225 0.00257739 -0.0451574 0.0332395 0.0393977 -0.0654222 -0.041766 0.0171104 -0.0463397 0.0412856 -0.000117536 -0.158909 0.209234 -0.0867553 0.0390368 0.0477338 -0.0365542 0.037786 -0.0314298 -0.0853475 0.0379909 -0.0470804 -0.0855947 0.038072 -0.0419542 0.0198201 0.0406001 -0.0567372 0.0376579 0.0402811 -0.104375 0.0317588 0.0440556 0.0390455 -0.0474462 0.0425301 -0.124717 0.036854 -0.111458 -0.0885335 -0.106061 0.0390539 -0.0460326 0.041188 0.0410386 0.0110518 0.0417996 -0.103681 0.121508 0.0367891 0.0390595 -0.0262843 0.0372218 0.0402893 0.0321216 0.0819251 0.0381504 -0.0483348 -0.0717271 -0.0472191 0.0323467 -0.131007 0.0127254 0.0493593 0.0326122 -0.00783423 -0.103567 0.110167 0.0400987 -0.0652158 -0.097207 0.0964739 -0.0387709 0.0379708 0.000626722 -0.151506 0.241222 -0.0734567 0.0374956 0.0674325 -0.0395633 0.0366295 -0.0104091 -0.0741151 0.0367147 -0.0396408 0.0243312 0.0369776 -0.0671661 0.0253748 0.0382304 -0.144874 0.0368263 0.0378696 -0.0481796 0.03236 0.0193621 0.0373509 0.013577 0.0385049 -0.093282 0.0368774 -0.076147 -0.0541972 -0.0566797 0.0358632 -0.0309201 0.0381895 0.0384598 0.0414891 0.0384569 -0.0940065 0.0758397 0.0359338 0.0371671 -0.0232407 0.0362634 0.0379995 0.0324635 0.00809815 0.0361903 -0.0407283 0.0310618 -0.0408713 0.0343696 -0.0607898 -0.0056539 0.0412723 0.0340704 -0.0153252 -0.0580597 0.0729884 -0.0626408 -0.000828684 -0.0488965 0.0653809 -0.0551223 0.0577738 -0.00415381 -0.166769 0.175166 -0.0960982 0.0580782 0.057373 0.000468974 0.057147 -0.0162787 -0.0957796 0.0575727 -0.0568419 0.106221 0.05735 -0.140655 0.0251242 0.0589169 -0.164463 0.0577846 0.0587063 -0.00350028 0.0519112 -0.0354957 0.0580571 0.00629381 0.0579928 -0.0345037 0.0570067 -0.0653717 -0.0022673 -0.006453 0.0532569 -0.0196268 0.0585742 0.0590145 0.00850855 0.0587208 -0.115731 0.045159 0.0544213 0.0576131 -0.0200474 0.0561943 0.0588366 0.0514144 -0.0786237 0.0567162 -0.0584028 0.0957174 -0.0584269 0.0549447 0.0274486 -0.0328444 0.058828 0.0538967 -0.0172693 -0.028119 -0.00360301 -0.0971742 -0.0181013 -0.016145 -0.0197427 -0.103209 0.105839 -0.0212272 -0.204117 0.113923 -0.171818 0.106485 0.0363138 0.0263144 0.104893 -0.0443796 -0.160467 0.106306 -0.106896 0.0742261 0.105247 -0.176482 0.0115312 0.108137 -0.12982 0.106251 0.108119 0.00959823 0.0952544 -0.0823634 0.107077 0.0268835 0.104126 -0.00165723 0.104562 -0.0434796 0.0412225 -0.00420369 0.0973942 -0.0759402 0.108103 0.108375 -0.00319853 0.107844 -0.172064 0.0330791 0.0979356 0.105541 -0.0179027 0.103446 0.108045 0.0940536 -0.106939 0.103141 -0.109529 0.100645 -0.110669 0.101065 0.0344166 -0.065191 0.105257 0.0992129 -0.0228694 -0.00799703 -0.0788705 -0.0120669 -0.0309657 -0.0382533 -0.0777437 -0.105883 0.107872 -0.0207822 -0.173309 0.0258791 -0.168451 0.107987 0.0105679 0.0239489 0.106047 -0.0514549 -0.156371 0.10755 -0.109181 0.0754839 0.106533 -0.189866 0.0149927 0.109891 -0.0578839 0.107751 0.109917 -0.0106379 0.0955937 -0.0769194 0.108628 0.0154299 0.106664 -0.00411289 0.105233 -0.0449811 0.0253508 -0.0171066 0.0955324 -0.0643857 0.109841 0.110111 -0.0250863 0.109713 -0.162242 0.0221341 0.0994392 0.107202 -0.0127228 0.104654 0.109581 0.0948245 -0.103318 0.104909 -0.112 0.106007 -0.112239 0.101351 0.035757 -0.059525 0.108914 0.0993841 -0.0300008 -0.0320633 -0.0667598 0.00600262 -0.0451721 -0.0482896 -0.0756337 -0.111563 0.111433 -0.0237664 -0.163315 -0.0352057 -0.179095 0.111477 -0.0146648 -0.00257348 0.109154 -0.0551362 -0.163833 0.110966 -0.115345 0.0062424 0.110063 -0.190243 0.022602 0.113444 -0.0267902 0.110583 0.113905 -0.0406609 0.0965826 -0.0823374 0.112681 -0.0418305 0.109587 -0.00633675 0.10807 -0.0497368 0.0301627 -0.0384306 0.0973202 -0.0221041 0.113974 0.113695 -0.0393063 0.113774 -0.164185 0.00736205 0.10169 0.110471 -0.00738074 0.108091 0.113124 0.0953502 -0.0971165 0.107122 -0.119101 0.0583959 -0.118531 0.102984 0.0199787 -0.059554 0.112695 0.101703 -0.0488584 -0.0899291 -0.0590943 0.0531024 -0.100094 -0.0619439 -0.0757572 -0.140531 0.140328 -0.0387537 -0.189594 -0.0808393 -0.214725 0.139846 0.00941593 -0.0414609 0.137102 -0.0659649 -0.179077 0.139312 -0.145826 0.025443 0.137842 -0.20876 0.0032506 0.142454 -0.0244037 0.138686 0.143202 -0.0903454 0.122064 -0.0887639 0.141652 -0.041815 0.138456 -6.99794e-06 0.136288 -0.0743872 -0.025268 -0.0811219 0.12634 0.00759114 0.143485 0.142998 -0.0299237 0.142936 -0.194927 0.0160453 0.129533 0.1393 -0.0313387 0.135876 0.142187 0.120766 -0.0887669 0.134167 -0.149219 0.0571825 -0.149383 0.13027 -0.0121084 -0.0813444 0.141413 0.12741 -0.0169352 -0.136923 -0.0209459 0.0292842 -0.114202 -0.10825 -0.054907 -0.150813 0.1474 -0.0336187 -0.205703 -0.0681541 -0.222902 0.144967 0.0292696 -0.0672612 0.14214 -0.0521489 -0.176481 0.14418 -0.156161 0.103518 0.141884 -0.187741 0.00568783 0.149633 -0.0459887 0.142691 0.147987 -0.11373 0.114941 -0.0668655 0.146428 -0.000831267 0.147373 -0.0181936 0.146049 -0.0792539 -0.0775684 -0.0885784 0.136205 0.0254703 0.148708 0.149294 0.00299744 0.149318 -0.206735 0.00774285 0.122439 0.145814 -0.0399182 0.140744 0.146978 0.111589 -0.0597392 0.122575 -0.158601 0.0808072 -0.157807 0.133906 -0.0435084 -0.0861476 0.149624 0.130656 0.0121103 -0.166826 0.0340742 -0.0329955 -0.077404 -0.128247 -0.00743226 -0.104527 0.0885874 0.036103 -0.185239 0.0802474 -0.19006 0.0830021 -0.0166188 0.00132458 0.0821272 0.02652 -0.15422 0.0816304 -0.107864 0.279421 0.0776825 -0.0705906 0.0820605 0.0930763 -0.0876823 0.0780149 0.083295 -0.0153303 0.0149274 0.0166907 0.0819259 0.143698 0.0926288 -0.0926756 0.0993818 0.00760565 -0.0333597 0.00411345 0.0880084 -0.0524608 0.0854387 0.0896978 0.0813897 0.0887185 -0.166171 -0.0755505 0.0159525 0.0889268 0.0251847 0.0796944 0.0820601 0.00465799 0.00665248 0.0156656 -0.105419 0.17674 -0.102022 0.0721813 -0.0494777 -0.0255645 0.0827729 0.0700965 0.0311136 -0.116806 0.0632185 -0.143585 0.0837657 -0.0584066 0.0640201 -0.100211 0.0839779 0.0297341 -0.206552 0.153752 -0.177386 0.0782134 0.0258343 -0.0164635 0.0772976 0.0304692 -0.140658 0.0765375 -0.103447 0.248052 0.0729309 0.00533672 0.0560443 0.0877312 -0.113296 0.0730633 0.0781408 -0.0310178 0.014342 0.0281708 0.0768424 0.161666 0.0882918 -0.0883968 0.0949091 -0.00515772 -0.0644686 -0.00763921 0.0874019 -0.0469936 0.0802802 0.0844696 0.10676 0.083325 -0.170135 -0.0372021 0.0146133 0.083665 0.00804241 0.0753849 0.0772038 0.0038538 0.0597563 0.0102951 -0.100376 0.124642 -0.0976921 0.067931 -0.0957688 -0.0370932 0.0798009 0.066262 0.0526515 -0.0983877 0.0841749 -0.103564 0.102857 -0.077169 0.0917729 -0.0889104 0.0772675 0.0103044 -0.222165 0.203441 -0.164745 0.0739014 0.0737589 -0.0393813 0.0728096 0.0160816 -0.123731 0.0725772 -0.0927851 0.146991 0.0699197 0.0238321 0.0217782 0.0797337 -0.141271 0.0702608 0.0741784 -0.0611091 0.0318687 0.020329 0.072641 0.102117 0.0786034 -0.0703368 0.0836883 -0.0453009 -0.0870368 -0.0574934 0.0843569 -0.022175 0.0757501 0.0783639 0.098162 0.0773121 -0.165502 0.0236048 0.0351037 0.0778191 -0.023609 0.0708504 0.0735763 0.025489 0.0781414 0.0349637 -0.0899551 0.051072 -0.0895278 0.0674529 -0.12336 -0.0451848 0.0700589 0.0646948 0.0768258 -0.0921983 0.0930061 -0.06669 0.0550117 -0.102383 0.093076 -0.0617891 0.0588037 -0.011402 -0.186115 0.206138 -0.100183 0.057896 0.101575 -0.0655072 0.0569391 -0.00620484 -0.0847736 0.0571427 -0.0641532 0.0478592 0.0567608 0.00798014 0.00204281 0.058706 -0.137136 0.0568509 0.0585634 -0.0810379 0.0514341 -0.000944052 0.0576845 0.0223446 0.0588383 -0.0452917 0.057713 -0.0809557 -0.0879365 -0.0754129 0.0590884 0.0333504 0.0590584 0.0592349 0.0520038 0.059051 -0.129141 0.069095 0.0569173 0.0580255 -0.0451422 0.0563371 0.0586757 0.0509368 0.0464757 0.0551035 -0.0642598 0.00993259 -0.0646365 0.055287 -0.0882048 -0.0546479 0.0586631 0.0533766 0.021539 -0.0723634 0.0736359 -0.00361476 -0.00141694 -0.0880207 0.0575342 -0.0237606 0.0222564 0.00376944 -0.144338 0.223662 -0.0513446 0.0218335 0.0716355 -0.0326485 0.0214051 0.00487444 -0.0543571 0.0212405 -0.0247466 0.00886301 0.0212037 0.0185069 0.011701 0.0221665 -0.121406 0.021211 0.0217253 -0.0378896 0.0195117 0.00859812 0.0213968 0.00125247 0.0213666 -0.0474389 0.0220919 -0.0690338 -0.0382537 -0.0368646 0.0222072 0.0213574 0.0219472 0.0221931 0.0320892 0.022136 -0.0858896 0.0724129 0.0217662 0.0216934 -0.0188684 0.021253 0.021813 0.0192864 0.0346275 0.0194179 -0.0252844 -0.00856942 -0.0244326 0.0187023 -0.0542845 -0.0226804 0.0218286 0.0204451 -0.00219141 -0.0386977 0.0462055 0.0222822 -0.00713971 -0.0381429 0.0403465 -0.0222929 0.0176688 0.00732844 -0.131575 0.203723 -0.0452035 0.0168227 0.0582134 -0.0238241 0.0170653 0.00785224 -0.0406789 0.0160022 -0.0230956 0.00987108 0.0155653 0.021119 0.0149342 0.0188538 -0.10759 0.0150526 0.0165894 -0.0316058 0.0169631 0.0110243 0.0165378 0.002512 0.00867824 -0.0478056 0.0195221 -0.0593048 -0.034397 -0.0345425 0.0202756 0.0140664 0.0174228 0.018428 0.0317714 0.0173264 -0.0759097 0.0628477 0.0171481 0.0171182 -0.011639 0.0164817 0.016478 0.0163765 0.0346132 0.00453992 -0.0236627 -0.0131988 -0.0224636 0.000399095 -0.0519256 -0.0150671 0.0104791 0.0154902 -0.00894126 -0.0287167 0.0442586 0.016299 -0.00554453 -0.0348898 0.0394434 -0.0230485 0.012352 0.0115746 -0.0979976 0.135717 -0.0368752 0.0110531 0.0291013 -0.0108457 0.0116206 0.0121458 -0.0135085 0.00961502 -0.024342 0.0192268 0.00791208 0.0249894 0.0205535 0.0161331 -0.0688149 0.00708134 0.0105494 -0.0249304 0.0150923 0.0137729 0.0104135 0.00904013 -0.012334 -0.0444762 0.0178003 -0.0344362 -0.0323914 -0.0347847 0.0207462 0.00289341 0.0118972 0.0147005 0.03104 0.0113869 -0.0554011 0.0319469 0.0113757 0.0120096 0.000254545 0.0110095 0.00963262 0.0140242 0.0349487 -0.0209964 -0.0250338 -0.0162479 -0.0232346 -0.0313568 -0.0484153 -0.00327645 -0.00779111 0.00894739 -0.016698 -0.0141035 0.0424818 -0.000719642 2.27727e-05 -0.0343996 0.0379188 -0.0206561 0.00430891 0.0153548 -0.0419849 0.030841 -0.0217415 0.00236041 -0.0109161 0.00648252 0.00362231 0.0157941 0.0215708 0.000625231 -0.0222354 0.0321573 -0.00252475 0.0269056 0.0253806 0.0105622 -0.00939461 -0.00375882 0.0016016 -0.0129807 0.0108294 0.015955 0.00161757 0.0203871 -0.0371116 -0.0333887 0.013571 0.00251377 -0.0254304 -0.0305579 0.0185005 -0.0114591 0.00361286 0.00819139 0.025788 0.00266635 -0.0228955 -0.0135054 0.00268347 0.00395192 0.0148394 0.00257102 5.8087e-05 0.00942616 0.0296942 -0.0496177 -0.0230741 -0.0134052 -0.0208075 -0.0665547 -0.0373697 0.011924 -0.0296822 -0.000182542 -0.0198965 0.00619432 0.0341405 -0.0205265 0.0113968 -0.0288617 0.0306275 -0.0195201 0.00132049 0.0164201 -0.0201202 -0.00981118 -0.015932 -0.000824642 -0.0259415 0.0130738 0.000684537 0.0170179 0.0344089 -0.00275749 -0.0210519 0.0378316 -0.00620199 0.0272974 0.0270425 0.00844801 0.0137419 -0.00759376 -0.00176516 -0.00846194 0.00915531 0.016577 -0.00171386 0.0254622 -0.0458775 -0.0286706 0.0118492 0.016944 -0.0225792 -0.0287841 0.0174404 -0.0167721 0.000518224 0.0056493 0.0234656 -0.000559254 -0.0108173 -0.0314782 -0.000566122 0.00102508 0.0201852 -0.000564544 -0.00361553 0.00776339 0.0272069 -0.0598121 -0.0222235 -0.0109048 -0.0197207 -0.0791558 -0.0324538 0.017504 -0.0375232 -0.00352777 -0.0197916 0.013763 0.0304844 -0.0276208 0.0165769 -0.0265832 0.0275128 -0.0134172 0.000889872 0.0115144 -0.0136189 -0.00728371 -0.0107309 -0.000513059 -0.018021 0.00900606 0.000358948 0.0118799 0.0238122 -0.00185796 -0.0145262 0.0261012 -0.00431135 0.0188 0.0186015 0.00589717 0.00977232 -0.00519926 -0.00105818 -0.00567427 0.00646277 0.011481 -0.00117207 0.0177481 -0.0316291 -0.0195362 0.00819738 0.0118356 -0.0152452 -0.019696 0.0120613 -0.0115434 0.000277518 0.00380722 0.0160091 -0.000359469 -0.0072522 -0.0219833 -0.000486659 0.000570222 0.0141456 -0.000358907 -0.0023713 0.00537291 0.0187026 -0.0412938 -0.0151735 -0.00732537 -0.0135589 -0.0544339 -0.0221997 0.0121152 -0.0260029 -0.00234461 -0.0135548 0.00964636 0.0210008 -0.0189721 0.0116814 -0.0183273 0.0188788 -0.00542616 0.000454223 0.00457616 -0.00536006 -0.00289492 -0.00429963 -8.9492e-05 -0.00732242 0.0036823 0.000163391 0.00474019 0.00976486 -0.000731974 -0.00578223 0.0106772 -0.00166398 0.00765034 0.00753943 0.00248764 0.00409866 -0.00202552 -0.000472707 -0.00231037 0.00271712 0.0046577 -0.000466801 0.00726529 -0.0127273 -0.00778323 0.00330864 0.00487732 -0.00624937 -0.0078215 0.00484243 -0.00460991 0.000181846 0.00151623 0.00658472 -0.000166563 -0.00270235 -0.00872047 -3.01994e-05 0.000368533 0.00574826 2.04063e-05 -0.000938977 0.00213063 0.00759981 -0.0165191 -0.00610043 -0.00281182 -0.00539457 -0.0220235 -0.00879862 0.0050463 -0.0104988 -0.000950315 -0.00549283 0.00393039 0.00849431 -0.00753959 0.00467338 -0.00730353 0.00766199 -0.000623589 0.000231695 0.000720489 -0.00073113 -0.000436226 -0.000478874 9.98752e-05 -0.000876396 0.000541247 0.000140032 0.000803381 0.001535 -4.04086e-05 -0.000774459 0.00159431 -0.000208407 0.00120972 0.0012945 0.000527578 0.000816957 -0.00023043 -4.6688e-05 -0.00033608 0.000479317 0.000735412 7.32232e-05 0.00127301 -0.00171909 -0.000963313 0.000657792 0.000772806 -0.000901794 -0.0010516 0.000882104 -0.000660913 0.000209808 0.000411349 0.00108364 0.000204427 -0.000352015 -0.00133083 0.000151874 8.11175e-05 0.00094895 0.000205136 -3.699e-05 0.000345892 0.00118795 -0.0023666 -0.000928867 -0.000289618 -0.000668676 -0.00322223 -0.0011839 0.000732776 -0.00148026 -4.24765e-05 -0.000714675 0.000706976 0.00127084 -0.00101506 0.000932238 -0.000939381 0.00130461 5.12695e-05 3.41797e-05 1.70898e-05 0.000109863 7.56836e-05 9.0332e-05 0.000239258 4.88281e-06 0.000114746 8.54492e-05 8.05664e-05 4.63867e-05 0.000100098 6.10352e-05 2.19727e-05 0.000241699 3.90625e-05 0.000131836 0.000109863 0.000148926 2.19727e-05 1.46484e-05 5.61523e-05 0.000148926 1.95313e-05 0.00019043 6.83594e-05 0.000214844 0.000134277 0.000153809 0.000124512 0.000234375 0.000192871 7.08008e-05 5.37109e-05 0.000114746 0.000219727 0.000148926 2.19727e-05 1.2207e-05 0.00017334 0.000214844 0.000178223 0.000107422 9.76563e-05 0.00015625 4.15039e-05 0.000166016 0.000209961 3.90625e-05 0.000161133 1.95313e-05 4.88281e-05 0.000107422 7.8125e-05 0.000202637 2.44141e-06 3.90625e-05 0.000180664 0.000209961 0.000144043 0.000209961 2.44141e-05 2.19727e-05 7.8125e-05 0.000185547 4.39453e-05 0.000231934 0.000146484 0.000200195 7.32422e-05 9.52148e-05 0.000231934 8.78906e-05 7.32422e-06 0.000197754 5.12695e-05 9.76563e-06 0.000195313 0.000239258 0.000180664 7.32422e-06 8.54492e-05 5.85937e-05 4.63867e-05 0.000214844 9.27734e-05 7.32422e-06 4.88281e-06 5.85937e-05 5.61523e-05 4.63867e-05 0.000119629 0.000224609 0.000126953 0.000141602 0.000209961 0.000146484 3.66211e-05 4.15039e-05 3.41797e-05 3.41797e-05 0.000197754 0 0.000212402 1.70898e-05 0.00013916 0.00020752 0.000180664 0 0.000144043 0.00013916 0.000227051 7.32422e-06 6.34766e-05 0.000119629 0.000168457 0.000141602 0.00017334 0.000219727 0.00015625 0.000166016 2.68555e-05 1.95313e-05 0.000236816 0.000153809 8.30078e-05 7.8125e-05 0.000231934 3.41797e-05 1.2207e-05 0.00015625 3.66211e-05 0.000205078 0.000168457 0.000144043 4.88281e-05 8.05664e-05 0.000178223 1.2207e-05 0.00020752 0.000214844 1.46484e-05 5.85937e-05 4.88281e-06 6.83594e-05 0.000197754 3.90625e-05 0.00017334 0.000141602 3.17383e-05 0.000126953 0.000209961 0.00010498 2.19727e-05 0.000148926 2.44141e-06 0.000141602 0.00015625 0.000239258 0.000222168 0.000168457 2.68555e-05 0.000119629 5.61523e-05 9.0332e-05 4.88281e-05 7.08008e-05 0.00020752 1.46484e-05 0.000224609 2.19727e-05 0.000158691 4.63867e-05 5.12695e-05 0.000202637 9.27734e-05 0.000239258 2.19727e-05 0.000197754 2.92969e-05 9.76563e-05 0.000168457 0.000175781 0.000107422 1.95313e-05 6.5918e-05 2.19727e-05 0.000134277 5.12695e-05 9.27734e-05 0.000227051 0.000195313 5.85937e-05 8.54492e-05 9.76563e-05 0.000151367 0.000241699 0.000195313 0.000236816 0.000114746 5.37109e-05 5.37109e-05 0.000146484 0.000144043 0.000231934 0.000146484 6.83594e-05 0.000192871 0.00013916 0.000151367 0.000134277 0.000195313 9.0332e-05 6.5918e-05 1.70898e-05 0.000153809 6.10352e-05 0.00010498 0.000187988 3.41797e-05 0.000185547 0.000175781 0.000236816 0.000205078 0.000187988 1.70898e-05 0.000144043 0.000197754 2.68555e-05 0.000197754 5.85937e-05 0.000195313 0.000178223 2.68555e-05 0.000102539 0.000161133 0.000163574 0.000241699 6.10352e-05 0.000134277 0.000129395 5.61523e-05 0.000102539 0.000134277 0.000241699 7.56836e-05 0.000126953 1.2207e-05 0.00020752 0.000170898 0.000107422 0.000153809 0.000241699 8.05664e-05 0.000236816 8.30078e-05 5.61523e-05 0.00015625 6.10352e-05 0.000144043 0.000158691 0.000109863 2.44141e-05 0.00019043 0.000205078 0.000102539 0.00015625 4.39453e-05 0.000241699 0.000236816 0.00019043 4.88281e-06 0.000163574 3.41797e-05 0.000175781 0.000112305 5.61523e-05 0.000100098 0.000117187 0.00020752 0.000195313 6.83594e-05 0.000202637 0.000109863 0.00019043 0.00010498 0.00020752 0.000183105 0.000141602 3.41797e-05 1.95313e-05 0 4.88281e-06 0.000183105 0.000151367 1.2207e-05 3.17383e-05 0.000166016 0.000151367 0.000183105 9.76563e-05 9.52148e-05 9.76563e-06 7.32422e-06 0.000100098 0.000227051 0.000231934 5.85937e-05 0.000227051 9.76563e-05 9.27734e-05 0.000136719 8.30078e-05 1.2207e-05 5.37109e-05 0.000166016 0.000217285 0.000185547 0.000241699 0.000229492 2.44141e-05 0.00015625 0.000100098 0.000178223 9.76563e-05 7.32422e-05 0.00015625 1.95313e-05 0.000200195 0.000187988 5.61523e-05 0.000141602 0.000126953 0.000217285 0.000141602 0.00012207 0.000129395 0.000129395 4.63867e-05 0.00020752 9.27734e-05 0.000158691 0.00010498 4.88281e-05 8.54492e-05 0.000136719 0.000107422 7.8125e-05 3.90625e-05 0.000227051 0.000107422 5.61523e-05 7.32422e-06 6.83594e-05 0.00010498 0.000100098 4.88281e-05 5.61523e-05 1.46484e-05 1.70898e-05 3.17383e-05 0.000236816 0.000234375 3.41797e-05 0.000117187 0.00017334 2.44141e-06 0.000202637 0.000109863 6.34766e-05 3.17383e-05 6.34766e-05 8.78906e-05 8.78906e-05 0.000131836 5.85937e-05 0.00017334 0.00019043 7.08008e-05 4.88281e-06 7.8125e-05 2.19727e-05 9.52148e-05 0.000180664 0.000158691 4.88281e-05 6.34766e-05 0.000146484 0.000231934 4.39453e-05 0.000197754 1.46484e-05 0.000234375 0.000136719 0.000129395 0.000214844 0.000136719 6.10352e-05 9.0332e-05 4.39453e-05 0.000144043 2.68555e-05 0.000234375 0.000239258 0.000197754 0.000148926 9.76563e-05 6.10352e-05 7.32422e-05 0.000241699 0.000183105 8.05664e-05 0.000134277 6.34766e-05 0.000170898 9.76563e-06 0.000205078 0.000148926 0.000146484 0.000202637 0 0.000163574 0.00015625 4.15039e-05 3.17383e-05 0.000209961 4.88281e-05 0.00012207 0.000217285 2.44141e-05 0.000100098 0.000205078 4.88281e-06 0.000200195 0.000129395 0.00020752 0.000126953 8.78906e-05 2.19727e-05 5.12695e-05 0.00015625 0.000134277 1.70898e-05 0.000187988 0.000131836 0.000229492 9.0332e-05 0.000107422 4.88281e-05 0.00017334 8.54492e-05 0.000217285 0.000209961 0.000178223 0.000158691 0.000158691 0.000131836 0.000131836 0.000214844 0.000161133 0.000168457 0.000183105 0.000161133 0.000217285 3.17383e-05 0.000100098 0.000214844 7.8125e-05 9.76563e-05 1.95313e-05 9.76563e-05 7.32422e-05 0.000227051 0.000200195 9.76563e-05 0.000124512 0.000112305 0.000219727 2.19727e-05 0.00010498 0.000229492 2.44141e-05 7.32422e-06 0.000131836 0.000212402 7.32422e-05 0.000166016 4.39453e-05 4.88281e-06 8.05664e-05 7.56836e-05 0 1.2207e-05 0.000126953 0.000163574 0.000114746 0.000239258 8.05664e-05 0.000146484 2.44141e-05 4.63867e-05 0.00019043 0.000141602 1.95313e-05 0.000161133 0.000126953 2.68555e-05 6.34766e-05 0.000148926 1.46484e-05 8.30078e-05 0.000212402 0.000146484 9.0332e-05 1.2207e-05 3.66211e-05 0.000209961 2.92969e-05 8.30078e-05 0.000219727 0.000178223 7.56836e-05 4.39453e-05 9.27734e-05 0.000141602 0.000148926 0.000109863 0.000214844 0.000146484 1.46484e-05 6.34766e-05 0.000212402 0.000117187 0.000161133 0.000219727 6.34766e-05 0.000158691 1.95313e-05 4.63867e-05 0.000102539 0.000129395 5.37109e-05 6.5918e-05 0.000112305 0.00017334 0.000131836 9.76563e-06 8.54492e-05 3.66211e-05 0.000126953 0.000153809 0.000183105 0.000202637 0.000224609 9.76563e-06 0.000161133 7.56836e-05 2.44141e-05 0.000175781 0.000134277 7.32422e-06 0.000185547 6.10352e-05 5.61523e-05 7.56836e-05 0.000117187 2.19727e-05 0.000234375 1.70898e-05 0.000153809 0.00012207 0.000234375 0.000195313 0.000170898 4.15039e-05 8.78906e-05 0.000195313 0.000222168 0.000219727 1.46484e-05 4.15039e-05 8.05664e-05 6.34766e-05 9.76563e-05 2.92969e-05 7.56836e-05 0.000180664 0.000234375 2.68555e-05 0.000222168 6.5918e-05 8.05664e-05 6.5918e-05 0.000144043 0.000229492 0.000192871 0.000136719 0.000117187 0.000219727 0.000112305 0.000178223 2.44141e-06 0.000195313 0.000114746 0.000146484 9.0332e-05 8.54492e-05 0.00010498 1.2207e-05 0.000129395 1.95313e-05 0.000205078 6.34766e-05 6.10352e-05 1.70898e-05 4.88281e-06 0.000185547 0.000161133 0.000163574 8.30078e-05 0.000175781 3.66211e-05 7.32422e-05 4.15039e-05 0.000166016 3.41797e-05 0.000217285 4.88281e-06 0.000153809 0.000200195 0.000209961 0.000109863 0.000178223 1.46484e-05 0.00019043 3.66211e-05 0.000126953 0.000234375 0.000141602 0.000100098 7.8125e-05 0.000202637 6.83594e-05 0.00012207 0.000129395 4.63867e-05 6.83594e-05 4.63867e-05 0.000212402 0.000202637 2.92969e-05 0.000200195 8.05664e-05 0.000202637 2.44141e-05 0.000202637 6.34766e-05 0.000239258 0.000227051 0.000100098 0.000166016 0.000119629 0.00013916 0.000183105 0.00013916 4.88281e-06 8.78906e-05 0.000129395 0 0.00017334 8.05664e-05 0.000102539 9.52148e-05 5.61523e-05 2.44141e-05 3.66211e-05 0.000219727 0.000219727 3.41797e-05 0.000239258 0.000217285 9.52148e-05 0.000234375 7.32422e-06 0.000151367 0.000114746 7.32422e-06 0.000124512 0.000158691 1.70898e-05 0.00019043 7.32422e-06 0.000183105 8.30078e-05 0.000161133 0.000241699 0 0.000107422 0.000168457 0.000163574 0 2.44141e-05 0.000197754 9.76563e-06 0.000107422 4.63867e-05 0.000180664 0.000126953 0.00012207 8.54492e-05 1.95313e-05 0.000126953 0.000229492 0.000151367 7.8125e-05 0.000219727 2.68555e-05 2.68555e-05 3.90625e-05 0.000209961 0.000119629 0.000100098 0.000178223 5.85937e-05 0.000166016 0.000187988 5.12695e-05 0.000209961 0.000109863 0.000236816 4.39453e-05 7.8125e-05 5.85937e-05 2.19727e-05 0.000161133 0.000158691 0.000229492 5.85937e-05 0.000144043 5.85937e-05 0.000212402 0.000170898 0.000117187 2.68555e-05 0.00010498 0.000114746 0.000214844 0.000229492 2.92969e-05 4.88281e-06 8.30078e-05 0.000153809 0.000192871 7.56836e-05 0.000161133 7.8125e-05 0.000192871 1.46484e-05 8.78906e-05 0.000209961 4.88281e-06 6.10352e-05 0.000112305 0.000197754 7.8125e-05 0.000212402 5.61523e-05 1.95313e-05 0.000168457 5.61523e-05 0.000236816 0.000153809 0.00019043 0.000151367 0.000131836 0.000112305 0.000112305 6.83594e-05 0.000134277 0.000153809 0.000197754 7.32422e-05 0.000107422 0.000170898 0.000109863 4.63867e-05 0 5.85937e-05 0.00013916 0.000234375 7.8125e-05 0.000229492 0.000112305 0.000234375 0.000102539 1.95313e-05 0.00015625 4.39453e-05 0.00015625 0.000141602 0.000109863 0.000168457 0.000197754 0.000217285 2.68555e-05 9.0332e-05 0.000202637 0.000178223 1.95313e-05 0.000183105 4.15039e-05 0.000178223 0.000200195 0.000148926 0.000114746 1.95313e-05 0.000109863 0.00010498 2.92969e-05 0.000124512 0 4.15039e-05 9.76563e-05 0.000124512 0.000119629 3.41797e-05 0.00012207 9.76563e-06 1.95313e-05 0.000136719 1.70898e-05 0.000131836 4.88281e-06 0.000227051 0.000134277 0.000134277 0.000231934 0.000168457 7.32422e-06 0.000217285 1.46484e-05 0.000227051 0.000117187 7.08008e-05 0.000153809 0.000107422 0.000114746 0.000126953 1.2207e-05 0.000205078 0.000229492 0.000227051 5.12695e-05 4.63867e-05 0.00013916 0.000175781 0.000124512 0.000209961 1.2207e-05 0.000131836 8.78906e-05 3.41797e-05 2.19727e-05 0.000107422 3.90625e-05 5.12695e-05 0.000219727 9.76563e-06 0.000195313 0.000124512 4.15039e-05 8.05664e-05 0.000180664 0.000141602 0.000112305 0.000229492 4.88281e-05 0.000212402 0.000134277 0.000219727 0.000124512 0.000209961 0.000224609 0.000153809 4.15039e-05 9.52148e-05 0.000161133 0.000129395 0.000136719 0.000141602 8.54492e-05 0.000166016 0 0.000134277 1.2207e-05 5.85937e-05 6.5918e-05 0.000134277 3.66211e-05 0.000195313 0.000175781 8.54492e-05 0.000180664 0.000217285 0.000209961 0.00012207 7.56836e-05 7.08008e-05 7.08008e-05 0.000187988 5.85937e-05 5.61523e-05 0.000100098 0.000168457 4.15039e-05 0.00015625 0.000151367 9.0332e-05 0.000109863 4.88281e-06 8.78906e-05 0.000185547 0.000217285 0.000136719 0.000178223 0.000158691 0.000158691 0.000163574 0.000192871 0.000227051 0.000119629 3.90625e-05 0.000217285 0.000129395 0.000148926 5.37109e-05 0.000109863 3.90625e-05 3.90625e-05 0.000214844 0.000212402 0.000146484 0.000197754 7.32422e-05 0.000158691 3.90625e-05 7.56836e-05 6.83594e-05 0.000131836 5.85937e-05 5.61523e-05 0.000175781 0.000146484 0.000217285 0.00010498 0.000209961 0.000168457 3.41797e-05 1.2207e-05 0.000214844 0.000185547 0.000107422 2.44141e-06 0.00010498 2.44141e-06 0.000146484 0.00017334 0.00017334 4.39453e-05 0.000102539 0.000175781 0.00013916 0 0.000239258 6.34766e-05 0.000163574 3.41797e-05 0.000214844 5.61523e-05 0.000205078 0 0.000239258 0.000231934 0.000219727 0.000151367 0.000129395 0.000224609 0.000214844 6.10352e-05 0.000222168 0.00019043 0.000205078 0.000219727 0.000192871 0.000170898 0.000129395 0.000134277 0.000239258 0.000183105 0.000214844 0.000183105 0.00012207 5.85937e-05 0.000107422 7.32422e-05 0.000107422 9.0332e-05 8.54492e-05 1.70898e-05 0.000187988 9.76563e-06 0.000134277 5.61523e-05 0.000100098 2.44141e-06 2.44141e-06 0.000183105 0.000212402 7.08008e-05 0.000214844 5.37109e-05 9.76563e-05 2.92969e-05 0.000227051 7.32422e-05 0.000195313 0.000119629 7.56836e-05 4.63867e-05 0.000227051 3.41797e-05 1.2207e-05 3.66211e-05 0.000236816 5.85937e-05 5.61523e-05 0.000192871 0.000239258 5.85937e-05 0.000109863 8.30078e-05 0.000192871 0.00010498 0.000217285 0.000158691 6.34766e-05 0.000134277 0.000212402 0.000163574 0.000214844 7.32422e-05 0.000180664 0.000141602 6.10352e-05 0.00019043 9.27734e-05 0.000229492 0.000227051 0.00012207 0.000144043 9.76563e-05 6.34766e-05 9.76563e-05 7.56836e-05 9.27734e-05 0.000192871 0.000192871 0.000146484 0.000100098 0.000126953 0.000114746 0.000217285 3.41797e-05 6.34766e-05 8.54492e-05 0.000241699 4.15039e-05 0.000187988 0.000102539 0.000200195 0.00017334 0.00020752 8.30078e-05 5.85937e-05 3.66211e-05 0.000229492 4.15039e-05 0.000107422 0.000214844 8.54492e-05 0.000195313 0.000117187 3.90625e-05 8.05664e-05 9.76563e-05 4.15039e-05 9.76563e-05 0.000222168 0.000219727 0.000212402 0.000209961 0.000197754 0.000163574 8.54492e-05 0.000241699 5.37109e-05 7.08008e-05 0.000222168 0.000114746 9.27734e-05 6.10352e-05 7.32422e-05 0.000119629 0.000185547 8.05664e-05 3.90625e-05 0.000136719 0.00012207 0.000195313 5.12695e-05 2.44141e-05 0.000151367 0.000163574 7.56836e-05 0.000141602 0.000236816 3.66211e-05 0.00015625 0.000129395 0.00017334 0.000185547 0.000219727 8.78906e-05 3.41797e-05 0.000214844 7.8125e-05 1.2207e-05 9.27734e-05 0 8.78906e-05 0.000192871 8.78906e-05 0.000170898 3.17383e-05 7.56836e-05 7.08008e-05 2.92969e-05 5.37109e-05 0.000227051 0.00012207 5.85937e-05 0.000212402 0.000239258 0.000239258 8.05664e-05 0.00019043 7.32422e-05 6.83594e-05 8.78906e-05 0.000114746 1.2207e-05 0.000129395 0.000131836 0.000222168 6.34766e-05 8.54492e-05 0.000217285 0.00017334 3.90625e-05 0.000124512 0.000197754 6.5918e-05 3.17383e-05 0.00013916 0.000129395 2.44141e-06 0.000195313 0.000209961 3.66211e-05 9.76563e-05 4.15039e-05 4.88281e-06 2.92969e-05 0.000100098 3.41797e-05 8.54492e-05 4.63867e-05 0.000117187 0.000185547 0.000205078 0.000117187 0.000209961 0.000224609 0.000112305 0.000222168 2.44141e-06 0.000185547 0.000107422 0.000131836 0.000129395 0.000119629 1.2207e-05 0.000146484 0.000141602 0.000168457 7.32422e-06 0.000222168 9.27734e-05 5.61523e-05 0.00020752 0.000178223 0.00015625 2.44141e-05 4.88281e-06 0.000129395 5.85937e-05 0.000146484 9.76563e-06 0.000234375 0.000151367 5.12695e-05 0.00019043 0.000170898 0.000119629 0.000180664 0.000141602 0.000126953 0.000236816 4.39453e-05 0.000158691 2.19727e-05 7.08008e-05 0.00012207 3.90625e-05 3.90625e-05 0.000107422 0.000114746 7.56836e-05 1.95313e-05 0.000180664 0.000209961 1.95313e-05 0.00010498 0.000119629 6.5918e-05 0.000161133 0.000144043 0.000141602 0.000153809 9.27734e-05 4.39453e-05 4.88281e-06 9.52148e-05 2.44141e-05 0.000153809 3.17383e-05 2.92969e-05 9.76563e-06 0.000129395 0.000112305 0.000175781 0.000180664 0.000214844 5.61523e-05 7.8125e-05 8.78906e-05 0.000209961 9.0332e-05 0.00015625 0.000119629 0.000241699 0.000114746 0.00015625 2.44141e-06 9.76563e-06 0.000195313 0.000185547 0.000227051 3.17383e-05 1.70898e-05 0.000134277 0.000178223 9.0332e-05 0.00012207 5.61523e-05 7.8125e-05 0.000151367 8.05664e-05 6.83594e-05 8.30078e-05 9.0332e-05 2.92969e-05 8.30078e-05 0.000151367 0.000231934 9.52148e-05 0.000183105 0.000205078 8.05664e-05 0.000102539 0.000209961 0.000126953 0.000168457 0 0.000109863 0.000119629 0.000236816 0.000241699 0.000119629 0.000100098 0.000192871 0.000197754 0.000231934 0.00020752 0.000141602 0.000102539 0.000109863 3.66211e-05 0.000185547 2.19727e-05 3.66211e-05 0.000161133 1.2207e-05 5.61523e-05 4.88281e-05 0.000112305 0.000114746 0.000229492 5.85937e-05 0.000129395 1.46484e-05 0.000161133 0.000141602 6.34766e-05 0.000236816 5.37109e-05 5.12695e-05 9.52148e-05 3.41797e-05 4.15039e-05 0.00012207 0.000117187 0.000141602 4.88281e-06 0.000197754 0.000112305 3.17383e-05 0.000195313 0.000229492 4.88281e-05 0.00020752 0.000131836 0.000151367 0.00013916 2.92969e-05 7.8125e-05 0.000229492 0.000229492 7.56836e-05 3.66211e-05 5.12695e-05 7.32422e-06 3.90625e-05 9.27734e-05 3.17383e-05 2.44141e-06 9.76563e-06 0.000195313 0.000195313 0.000158691 0.000102539 7.56836e-05 0.000166016 2.68555e-05 0.000219727 2.44141e-06 9.76563e-06 0.00017334 0.000217285 0.000229492 1.95313e-05 0.000222168 0.000195313 5.61523e-05 0.000222168 0.000241699 1.70898e-05 0.000209961 0 0.000229492 0.000185547 0.000180664 0.000107422 0.000161133 6.83594e-05 0.000205078 0.000148926 0.000170898 3.41797e-05 5.37109e-05 0.00019043 4.15039e-05 0.000217285 1.70898e-05 1.2207e-05 0.000187988 6.5918e-05 0.000144043 0.000217285 0.000100098 0.000231934 1.95313e-05 0.000100098 0.000146484 0.000219727 0.000126953 5.85937e-05 0.000214844 0.000148926 0.000239258 8.54492e-05 0.000131836 0.000209961 4.88281e-05 0.000241699 2.44141e-05 0.000161133 0.000151367 0.00015625 1.2207e-05 0.000229492 0.000166016 0.000163574 0.000146484 0.000224609 0 0.000200195 2.92969e-05 0.000136719 0.000229492 0.000229492 0.000185547 4.88281e-06 0.000175781 6.5918e-05 0.000192871 0.000209961 0.000131836 2.92969e-05 0.000134277 7.32422e-06 0.000170898 0.000178223 0.000158691 0.000166016 3.90625e-05 6.83594e-05 4.88281e-06 2.19727e-05 4.88281e-05 7.8125e-05 2.44141e-06 4.88281e-05 5.61523e-05 8.54492e-05 7.32422e-05 9.52148e-05 0.000151367 0 9.27734e-05 0.000178223 0.000107422 0.000185547 0.000234375 7.32422e-06 0.000166016 4.88281e-05 0.000126953 0.000197754 0.000126953 0.000180664 9.27734e-05 0.000129395 9.76563e-06 0.000183105 0.000185547 0.00010498 0.000161133 0.000170898 0.000202637 0.000236816 7.8125e-05 0.000222168 9.76563e-05 1.2207e-05 0.000161133 0.000161133 0.000231934 3.17383e-05 0.000102539 2.19727e-05 6.83594e-05 0.000212402 0.000129395 5.61523e-05 7.08008e-05 0.000197754 9.76563e-06 0.000202637 8.30078e-05 0.000141602 3.41797e-05 0.00015625 9.52148e-05 5.37109e-05 6.83594e-05 4.39453e-05 4.63867e-05 0.000161133 0.000219727 0.000236816 0.000161133 0.000144043 0.000185547 3.90625e-05 0.000136719 0.000100098 0.000217285 3.17383e-05 6.34766e-05 4.63867e-05 3.66211e-05 0.00010498 0.000102539 1.46484e-05 0.000107422 5.61523e-05 0.000161133 2.19727e-05 3.41797e-05 0.000166016 0.000180664 2.44141e-05 6.10352e-05 0.000236816 0.000241699 0.000180664 0.000146484 0.000136719 0.00012207 0.000170898 0.000119629 0.000109863 7.08008e-05 0.000114746 3.66211e-05 0.000153809 0.000170898 0.000134277 0.000148926 0.000131836 1.2207e-05 4.88281e-05 0.000119629 0.000117187 0.000146484 0.000119629 0.00020752 0.000236816 0.000100098 4.63867e-05 0 9.27734e-05 7.8125e-05 1.2207e-05 0.000175781 5.12695e-05 0.000161133 9.52148e-05 0.000219727 7.56836e-05 0.000100098 0.000231934 0.000209961 0.00020752 0.000126953 1.2207e-05 0.000112305 9.76563e-06 5.37109e-05 0.000205078 7.08008e-05 0.000180664 1.46484e-05 0.000168457 0.000109863 0.000141602 0.000200195 0.000185547 0.000136719 7.56836e-05 0.000214844 0.000161133 4.15039e-05 0.00010498 6.83594e-05 0.00012207 0.000231934 0.000126953 0.000202637 0.000229492 0.000229492 7.32422e-05 0.000205078 4.88281e-05 4.39453e-05 0.000124512 0.00013916 0.000153809 0.000224609 0.000151367 0.000175781 1.95313e-05 0.000131836 0.000131836 3.41797e-05 2.44141e-05 0.000229492 3.66211e-05 0.000222168 0.000217285 0.00012207 0.000183105 0.000107422 7.32422e-05 0.000219727 0.000102539 7.32422e-05 0.000141602 0.000180664 4.88281e-06 0.000175781 0.000200195 0.00019043 5.85937e-05 0.000219727 0.000158691 0.000185547 0.000114746 0.000161133 0.000205078 1.2207e-05 0.000183105 0.000163574 0.000102539 9.27734e-05 0.000100098 0.000197754 0.000112305 0.000205078 0.00020752 0.00015625 0.000229492 8.30078e-05 0.000192871 0.000119629 3.17383e-05 0.000239258 0.000202637 7.08008e-05 0.000205078 0.000170898 0.000212402 0.000124512 0.00015625 2.92969e-05 0.000241699 6.83594e-05 0.000144043 0 8.54492e-05 0.000175781 3.41797e-05 7.08008e-05 0.000231934 9.76563e-05 0.00019043 7.56836e-05 2.44141e-05 0.000151367 0.000161133 0.00015625 2.68555e-05 0.00013916 0.00017334 0.000136719 7.08008e-05 3.41797e-05 0.000185547 0.000129395 0.000141602 8.30078e-05 0.000227051 0.000209961 3.66211e-05 0.000187988 0.000231934 0.000144043 6.34766e-05 0.000200195 0.000170898 0.00019043 3.90625e-05 8.54492e-05 6.10352e-05 2.19727e-05 0.000136719 2.92969e-05 0.00020752 0.000146484 0.00010498 0.000124512 5.12695e-05 0.000107422 0.00020752 0.00012207 0.000187988 1.95313e-05 8.78906e-05 0.000129395 9.27734e-05 0.000144043 2.68555e-05 2.19727e-05 0.000205078 9.52148e-05 0.000239258 0.00019043 0.000129395 0.000107422 0.000129395 0.000224609 0.000178223 0.000183105 5.37109e-05 5.61523e-05 0.000202637 0.000107422 0.00010498 5.12695e-05 8.54492e-05 0.000151367 3.66211e-05 0.000180664 0.000126953 7.56836e-05 0.000124512 0.000183105 0.000185547 0.000231934 3.90625e-05 0.000117187 1.2207e-05 4.15039e-05 8.54492e-05 4.88281e-06 9.27734e-05 0.000134277 3.17383e-05 0.000119629 1.46484e-05 0.000209961 0.000117187 3.17383e-05 0.00020752 0.000161133 0.000197754 0.000166016 9.0332e-05 0.000163574 0.000214844 0.000144043 1.70898e-05 0.000214844 2.44141e-06 0.000234375 0.000209961 0.000141602 0.000158691 0.000202637 8.54492e-05 0.000158691 0.000117187 4.88281e-05 0.000187988 0.000131836 0.000166016 4.15039e-05 0.00017334 1.95313e-05 0.000161133 5.85937e-05 0.000117187 0.000158691 6.5918e-05 6.5918e-05 7.08008e-05 9.76563e-05 0.000141602 0.000100098 8.30078e-05 0.000166016 0.000183105 1.95313e-05 0.000141602 0.000161133 0.00010498 0.000129395 0.000117187 4.63867e-05 8.54492e-05 0.000195313 0.000239258 0.000107422 2.44141e-05 0.000227051 0.00010498 6.34766e-05 0.000163574 0.000100098 0.000180664 0.000200195 0.000161133 0.000178223 0.000224609 0.00013916 0.000209961 0.00015625 0.000170898 6.5918e-05 2.68555e-05 4.63867e-05 0.000183105 0.000168457 2.44141e-06 7.32422e-05 3.66211e-05 0.000168457 0.000195313 0.000197754 3.17383e-05 1.2207e-05 0.000119629 0.000214844 4.39453e-05 0.000170898 0.000197754 5.37109e-05 4.63867e-05 0.000209961 0.000178223 0.000126953 0.000192871 8.54492e-05 0.000131836 2.44141e-06 0.000117187 0.000163574 0.000100098 0.000100098 2.92969e-05 0.000178223 0.000170898 0.000112305 0.000212402 4.39453e-05 0.000107422 0.00019043 0.000114746 0.000192871 4.88281e-05 0.000134277 0.000209961 7.8125e-05 0.000192871 0.000214844 0.000212402 0.000229492 0.000168457 2.19727e-05 0.000175781 0.000109863 0.000175781 0.000185547 6.5918e-05 0.000109863 7.8125e-05 0.000126953 0.000195313 0.000229492 4.88281e-05 7.32422e-05 8.30078e-05 8.30078e-05 6.10352e-05 8.30078e-05 0.000126953 0.00013916 4.88281e-06 0.000224609 0.000158691 6.5918e-05 0.000241699 4.88281e-05 0.000144043 0.000119629 0.000112305 1.70898e-05 9.0332e-05 2.19727e-05 0.00012207 0.000117187 0.000163574 2.68555e-05 4.88281e-06 0.000151367 7.32422e-05 6.83594e-05 0.000180664 0.000170898 0.000185547 0.000153809 8.78906e-05 5.37109e-05 0.000136719 9.76563e-05 4.88281e-06 8.54492e-05 0.000180664 0.000224609 4.15039e-05 6.83594e-05 0.000209961 0.000209961 0.000217285 0.000217285 0.000202637 0.000231934 0.000205078 0.000163574 1.70898e-05 0.000129395 0.00015625 0.000185547 0.000212402 0.00020752 3.17383e-05 0.000109863 0.000183105 0.00019043 3.66211e-05 0.000170898 3.66211e-05 0.000234375 0.000192871 6.5918e-05 9.76563e-06 1.2207e-05 0.000222168 8.78906e-05 5.37109e-05 5.61523e-05 4.63867e-05 0.000161133 0.000161133 0.000102539 0.000144043 2.92969e-05 7.56836e-05 9.52148e-05 0.00019043 8.30078e-05 0.000187988 2.92969e-05 0.000214844 8.05664e-05 0.000187988 7.32422e-05 0.000183105 0.000114746 0.000144043 0.000178223 0.000219727 1.46484e-05 0.000158691 0.00010498 0.000229492 1.70898e-05 0.000192871 0.000205078 0.00012207 6.5918e-05 0.000195313 1.95313e-05 3.66211e-05 0.000168457 0.000175781 0.000141602 0.00010498 